Epoch: 2798
51 1 576 4 1e-05
0 0 -0.116283 -0.0405709 0.122768 0.0734113 -0.00855191 0.0289657 -0.0692121 0.201856 -0.110339 -0.0578427 0.0360756 -0.110712 0.0831914 -0.1487 -0.0188212 -0.0403076 0.0222636 0.0788942 0.0540024 0.0665382 0.133747 -0.16025 0.00286905 -0.0754494 0.150846 0.123587 0.0532433 -0.0178591 -0.0754124 -0.000159768 0.162563 -0.0181178 -0.0852302 -0.00700186 0.13333 0.116943 -0.176994 0.153032 0.0265874 0.0619084 -0.172726 0.0186175 -0.148422 0.153605 -0.0464253 0.167518 -0.00140411 0.20882 0.0407489 0.0631878 0.0636692 -0.0606905 
0 1 -0.216358 0.205825 -0.197654 -0.0121746 0.0568633 0.0595334 -0.182161 0.172285 -0.0382897 -0.105534 0.049625 -0.207981 0.0387737 -0.137362 0.0721896 0.248322 -0.0819161 0.0724061 -0.149142 0.00703094 0.0677583 0.035236 0.0194889 0.13469 -0.0329682 -0.132003 -0.161066 -0.0373419 -0.0757972 0.0151487 0.054218 -0.426909 -0.0651002 0.255718 0.0216738 -0.140761 0.0254882 0.0772143 -0.243571 -0.0619641 0.0544154 0.0449828 0.011603 -0.164692 -0.0911118 -0.173012 -0.0252122 -0.0144417 0.0505108 -0.032366 -0.132262 -0.017334 
0 2 0.0448661 -3.67232e-06 -0.187595 0.0693381 -0.0545784 -0.0880523 0.146112 0.155619 -0.0302572 0.0567124 0.0890913 0.0308978 -0.231133 -0.0763553 0.0319562 -0.123051 0.0119958 0.105572 -0.165899 0.0137392 0.02103 0.0258298 -0.214665 -0.17799 0.200044 0.109102 -0.065594 0.118165 -0.00556561 0.0347546 -0.0456489 -0.0845518 0.169314 -0.0562456 0.0208463 0.130383 0.0967947 0.0110885 0.107775 -0.13107 -0.0680409 0.0622317 0.0497981 0.0455325 0.0257944 0.131857 -0.099554 -0.00948128 -0.127575 0.0283866 -0.132301 0.0172396 
0 3 0.10884 0.206618 -0.0589419 -0.119689 0.0595408 0.043032 0.0501382 -0.0705889 -0.00390187 0.0931018 -0.0856669 0.0355342 -0.100558 0.178377 0.0412087 0.164135 -0.0787024 -0.0690694 0.172158 -0.122442 -0.00889535 -0.163924 -0.123249 -0.133591 -0.0178213 -0.109757 -0.0929584 -0.015903 -0.202871 0.0149869 -0.0353551 0.0991435 0.0905955 -0.0437387 -0.0556152 0.337663 0.0651293 0.107918 -0.077151 0.0975628 -0.101809 0.115344 0.20189 0.103302 0.225246 -0.048092 -0.0613375 0.011355 0.0441278 -0.0534344 0.0506036 -0.0509542 
0 4 0.202801 0.0631407 0.0118969 0.0629459 0.0245694 -0.099091 -0.0340113 -0.0294284 0.130316 0.069408 -0.180123 -0.106048 -0.0241114 0.0946647 0.0167623 0.064721 0.121888 0.0165199 0.265587 -0.0369709 -0.163941 0.0072723 0.0809664 0.0294202 0.130726 0.156586 -0.0603104 -0.0642697 0.0869698 0.129653 -0.115077 -0.160489 0.0472066 0.204805 0.0173863 0.0705576 0.0676568 0.113057 0.131164 -0.0388912 0.168941 0.0140962 0.0976948 0.157181 0.00542256 0.0456882 0.237271 0.0875647 0.00967005 0.0536989 0.0600149 0.117879 
0 5 0.032363 -0.0852326 -0.0861122 0.0989086 0.00196178 0.257924 -0.144865 0.0508852 -0.0148231 0.0431854 -0.000337693 -0.0631641 -0.108519 -0.141519 -0.124242 0.0816668 0.094274 -0.111349 -0.147456 -0.0556902 0.0887833 -0.0749922 0.051011 -0.142135 -0.140411 0.0483909 -0.157925 -0.00310357 0.160782 0.0884574 -0.123745 0.112803 -0.101756 -0.189232 -0.00470365 -0.00764796 -0.226306 0.0655347 -0.288916 -0.0285303 0.0845762 0.00663606 0.0582816 -0.0220942 0.0692674 -0.0495872 -0.0347031 -0.0446973 -0.107925 -0.237707 -0.00551656 -0.19667 
0 6 0.052427 0.0388496 -0.0132641 0.0157082 0.120301 0.228044 0.0952148 -0.0430346 0.177332 -0.157021 0.0568202 -0.194227 -0.0152651 -0.122315 0.0344099 -0.132797 -0.152595 0.0196192 -0.0207577 -0.0965671 0.155795 0.0570789 -0.236785 0.259968 0.114511 -0.0754934 0.161004 0.057793 -0.0407596 0.172763 0.0749454 0.043363 0.103858 0.169831 0.099978 0.105192 -0.00315027 -0.0502287 0.17889 0.139297 -0.126347 0.0593701 0.0625 -0.0422365 -0.0213776 0.0302697 0.206249 0.0142969 -0.049108 0.0394844 0.123768 0.00934597 
0 7 -0.146071 -0.10435 0.0984829 -0.0701793 0.0807415 -0.0329502 0.164555 -0.103328 -0.208594 -0.0255447 -0.0506218 -0.0332872 -0.122484 0.203674 -0.00909784 -0.0533599 -0.131421 -0.209694 0.0636114 0.0234366 0.0880483 0.0110379 -0.221844 0.12783 -0.0329698 -0.00432139 0.0253506 0.107364 0.00767872 0.165511 -0.0361009 0.0896456 -0.0374037 -0.107567 -0.0479843 0.0764324 -0.0597902 -0.150982 0.174981 -0.0725367 0.0191999 0.0189563 -0.212378 -0.148288 0.00121323 -0.012377 -0.120058 -0.0157568 -0.000115433 -0.0539855 0.101952 0.118767 
0 8 -0.126483 0.0589615 -0.111703 0.0471593 -0.0649249 -0.130616 -0.0939754 -0.0763477 -0.0911075 0.309258 -0.0555136 -0.0898892 0.0412911 -0.0271791 -0.0709405 -0.0274318 0.171385 0.0553186 -0.16574 0.0187326 0.0518765 -0.0259392 -0.064215 0.0411747 0.0417173 -0.0842168 -0.026201 -0.0215269 -0.0505188 -0.00337529 -0.217406 0.0369811 0.0517609 0.190473 -0.0729456 -0.0160629 -0.202353 -0.0504957 -0.011606 -0.072795 -0.1422 0.0511788 -0.0709255 0.0283238 0.177223 -0.229556 0.0301492 0.0992676 -0.0217774 -0.181498 -0.15944 -0.0982779 
0 9 -0.0990261 0.0392854 0.182086 0.124849 -0.0800269 0.171286 0.0696392 0.144082 -0.0953777 -0.254325 0.265077 0.0621738 -0.0850969 -0.112099 0.0470538 -0.0253608 0.207092 -0.146923 0.117525 0.0939833 0.0420893 0.556653 0.18361 -0.0839837 0.0179465 0.0552764 -0.3451 0.132342 0.413118 -0.0165995 0.110029 -0.00771496 0.0310718 0.117642 0.338119 0.113237 0.019737 0.0370293 -0.0262515 0.056287 0.254302 -0.339064 0.0685083 0.0116578 -0.126062 0.0519135 0.222363 -0.142011 -0.23015 -0.00267063 0.0771147 -0.0262581 
0 10 0.0974532 0.0447902 0.0441737 -0.105128 -0.00164045 -0.0359102 0.0548081 -0.0131242 0.118976 0.0937357 -0.104758 -0.0514713 -0.148325 -0.0645002 -0.0795168 -0.0769944 0.0489263 0.103148 0.0927229 -0.161684 -0.0155914 0.22958 -0.00857532 -0.0615056 0.0192369 -0.0833118 0.0297778 0.0587496 0.375329 -0.0798288 0.284113 -0.13654 0.0766909 0.0252046 -0.000217843 0.00197808 -0.0171054 0.075193 -0.0709052 -0.073549 -0.0597386 -0.00644475 0.0188976 0.0927251 -0.102708 -0.0183934 -0.0491818 0.0929785 0.0329197 0.0510989 0.179665 0.229079 
0 11 0.0741588 0.0187707 0.089921 -0.180944 -0.0950871 -0.125008 0.261899 -0.0172632 0.0643379 0.0855954 0.0450872 0.020289 0.175337 -0.046528 -0.00936455 0.0389989 -0.133304 0.11542 -0.122687 0.0947929 0.193865 -0.0886865 -0.192001 0.114673 0.0262416 0.124476 0.134802 -0.0523162 -0.0212252 -0.214542 0.0419708 -0.0453226 0.00926555 -0.152744 0.0811481 0.17313 0.0135226 -0.00636583 0.072076 0.141429 -0.0927214 -0.00390232 -0.231693 0.0915732 0.0514756 0.0256408 0.0112854 -0.17879 0.0730886 0.0980548 0.183388 -0.0270206 
0 12 0.0566872 -0.158243 -0.232041 0.165871 -0.116443 -0.0377478 -0.0771561 -0.187461 0.192548 -0.0288301 0.0707351 0.0250681 0.0368443 0.118539 -0.249514 0.119636 -0.0605351 -0.0486634 0.0393079 -0.0521551 -0.0158978 0.0705249 -0.0440645 0.0380354 -0.0672904 0.0834409 0.0781988 0.0438099 0.0724976 -0.0844977 -0.0270363 0.0716414 -0.0022499 0.144392 -0.04483 0.0085011 -0.103992 -0.114186 0.0370892 -0.195246 0.0893405 0.021721 -0.180099 -0.0133379 0.01264 0.0844521 -0.0421048 -0.16 -0.044636 0.0521631 -0.0619619 0.069867 
0 13 0.104339 0.0724855 0.46524 -0.13502 -0.0466488 -0.0770941 0.193056 0.34235 0.0402365 0.104043 0.200417 0.0104478 -0.0601567 -0.189254 -0.0396841 0.315383 0.289517 0.0363038 -0.0663555 -0.187 0.173497 -0.171897 0.180728 -0.0348603 -0.0720883 -0.0387616 0.0365535 0.25688 -0.115273 -0.0852029 -0.377806 0.286302 -0.154132 0.0731449 0.00449545 0.186035 -0.123478 0.2517 0.0809704 0.141704 0.0807499 -0.0401219 0.151849 -0.0457577 0.232504 0.0587237 0.0570212 -0.128246 0.0175907 0.211644 0.0597306 0.0389069 
0 14 0.0828557 0.0253999 -0.0633606 0.0957643 -0.0325539 -0.0599259 0.0704901 -0.115975 0.0322401 0.0908164 0.140448 0.134978 -0.0618027 -0.0056016 0.246409 -0.0167842 0.193835 0.0402842 0.0913735 0.0320365 -0.100989 0.147708 -0.138442 -0.0606645 0.106554 -0.0829295 0.00758062 0.0856494 -0.00510224 -0.0239758 -0.109613 -0.0107892 0.200293 -0.118387 0.0251546 0.0328252 -0.179867 0.0562283 0.00287668 -0.0153644 -0.0391025 -0.0670282 0.0236657 0.0743119 -0.0869775 0.145396 -0.0660373 0.00132959 -0.149233 -0.07986 -0.130144 0.102878 
0 15 -0.027896 -0.0379103 -0.0520888 -0.023845 0.0955461 -0.0399462 0.0973311 -0.342933 0.103963 0.119003 0.112357 -0.0789315 -0.192279 -0.128008 -0.127754 -0.09244 -0.217066 0.0172699 -0.103132 -0.162305 0.0250453 -0.0690305 0.0388896 -0.198951 0.0256742 -0.0869742 -0.236268 -0.10611 -0.275847 0.186461 -0.300331 -0.0596585 0.0568673 0.231082 -0.152101 -0.336439 0.042304 0.0601063 0.109201 0.113443 0.00894703 0.0134797 0.137764 -0.0740051 -0.151585 -0.223542 0.162912 -0.0793919 -0.0810858 -0.00935026 -0.180597 0.189004 
0 16 0.0330768 0.100976 -0.112697 0.216679 -0.283895 -0.0737276 -0.15279 0.0692217 0.198113 0.189604 0.00563423 -0.077087 0.205022 -0.283654 -0.0908974 -0.0632856 0.170406 0.0521557 0.114509 -0.267904 -0.0228794 -0.217411 -0.175351 -0.0708569 -0.0123712 -0.0177235 -0.00496618 -0.123834 -0.210852 0.134758 -0.30842 -0.147001 0.0641188 0.0727597 0.0632077 -0.0428683 0.066779 -0.0769931 -0.0491436 0.10478 0.167837 0.0996368 -0.210747 -0.0142893 -0.0616076 0.0339623 -0.142722 0.104808 0.315718 0.0594656 -0.300144 -0.14428 
0 17 -0.0933369 0.0726927 0.0191654 0.0859673 0.199588 -0.195394 -0.136794 -0.0791179 -0.135454 -0.0669155 0.0490725 0.0576606 0.197922 0.0613263 -0.175636 -0.0861696 -0.0848263 0.0685667 0.0411469 -0.0067357 0.0559978 0.11963 -0.0849083 0.0345832 0.0519623 0.105947 0.0367327 -0.0394462 0.0562028 -0.0567517 0.133066 0.102351 0.055973 -0.079336 0.0731306 -0.23899 0.11726 0.0296951 -0.0581018 -0.0481594 0.0620924 -0.0160259 -0.0710299 0.115238 -0.0896407 0.0682888 0.112248 0.0731932 -0.0863452 -0.000647939 0.110672 0.0343542 
0 18 0.139949 0.215714 0.0509682 0.0719738 0.0455709 -0.227623 0.292445 -0.15871 -0.173614 -0.0367116 -0.0648284 0.0565194 0.0437331 0.0339091 0.150619 0.129135 0.178121 0.123688 0.146665 0.104772 0.123656 -0.0457843 -0.0522583 0.237672 -0.0512105 0.0706702 0.0667236 -0.0347671 -0.151422 -0.00131317 0.0512674 -0.0544114 0.207571 -0.0924437 0.0739307 -0.0148788 0.0282417 0.180369 0.21363 0.224719 0.0296735 -0.0876323 0.00374855 -0.092787 0.0287706 -0.0855179 -0.0410195 -0.0663314 0.117882 0.131555 0.100905 0.041084 
0 19 -0.0541645 -0.050767 0.0183102 -0.108647 -0.00241371 0.0953613 0.124535 0.090699 -0.00888228 -0.204718 0.160365 0.0679532 -0.0929653 -0.0750177 0.116669 -0.0296752 -0.150984 0.103978 0.126939 0.0913865 0.0816851 0.0588969 -0.0592415 -0.173075 -0.0664522 -0.0539819 0.0522208 -0.0334082 -0.131357 -0.0352483 0.191587 0.307556 -0.0819004 0.0430394 -0.0905082 -0.02009 -0.0517482 -0.223501 0.0814574 0.11146 0.126001 -0.00933825 -0.0867822 -0.112993 0.0535499 0.0544582 -0.188281 -0.0973979 -0.125713 0.116763 -0.0326315 0.0552627 
0 20 0.024857 0.0332448 0.0257604 -0.163555 -0.153498 0.0760461 0.100468 -0.280914 0.0641238 0.0282383 -0.0251426 0.204303 -0.0122111 -0.106502 0.0197955 0.0492752 0.0687524 -0.0766015 0.0123694 0.11768 -0.00203783 -0.00469932 0.0704445 -0.0686816 -0.0121005 -0.0487303 0.0190865 -0.00372661 -0.0610007 0.208578 0.127707 0.0401057 0.092109 0.121602 -0.108493 -0.0863831 0.0751325 -0.288057 0.19459 0.0506443 0.0942746 0.100436 -0.0510913 -0.00390348 0.0131212 -0.0660775 -0.119412 -0.0757227 0.00454586 0.00406643 -0.00105504 0.074926 
0 21 -0.0664355 0.0462286 -0.010367 -0.124331 0.103436 -0.122193 0.253959 0.0688698 0.0861601 0.0395061 -0.0139372 0.0557348 0.100303 0.0305729 -0.141911 0.152559 -0.0625481 0.0759154 -0.0156032 -0.105193 0.035259 0.0534186 0.187071 -0.267877 -0.0485136 -0.0232194 0.178189 0.00662062 0.177956 0.0112221 0.0427754 0.215641 0.0666274 0.0461854 -0.014247 -0.109576 0.0907489 0.0702992 -0.0977844 0.160986 0.253163 0.0616531 0.056876 -0.067073 -0.0081806 0.0459044 -0.0868407 0.0241192 0.100627 0.0887641 0.106663 -0.0626742 
0 22 -0.0385419 0.165173 0.17334 -0.0454826 0.0909328 0.0402873 -0.0662763 -0.0410406 -0.02045 -0.177715 -0.206969 -0.00316705 0.267746 0.0634244 -0.0314034 -0.101198 -0.0518815 -0.0576283 0.031078 -0.0385503 0.121544 -0.125021 -0.0530748 -0.0606315 -0.0236885 -0.0563868 0.139214 -0.151263 -0.0559851 -0.123484 -0.0625528 -0.0200204 -0.071077 -0.097859 0.0116523 -0.210953 0.0307295 0.0427283 0.0138337 -0.299235 -0.0365037 0.0717272 -0.11819 0.055382 -0.134171 -0.111913 0.0851075 0.189 -0.0065233 -0.0426396 -0.223129 0.014612 
0 23 0.140087 -0.0960222 -0.119015 0.234848 0.198786 0.00368519 0.188458 0.016145 0.0469947 0.302585 0.0280608 -0.176469 0.139239 0.113948 0.140005 -0.0477689 0.311161 0.0478233 0.161157 0.0152317 -0.0343632 0.00204877 -0.0043602 0.223837 -0.131276 -0.0999481 0.205032 -0.0619621 0.0363994 -0.179257 0.382086 0.0299867 -0.0721645 -0.0141876 0.0933267 0.0737263 0.0228432 -0.0998568 0.117648 -0.0353021 0.0687724 0.237306 0.00709901 -0.0614887 0.0481283 0.126568 0.179373 -0.194548 -0.000445582 -0.177715 0.118565 0.134152 
0 24 -0.139005 -0.149983 -0.0499056 -0.0728282 0.00425759 0.0809236 0.0215776 -0.161648 0.0126488 0.0218761 -0.0948599 -0.00223691 0.0387563 -0.0662791 -0.0700977 0.119307 -0.0962781 0.0115449 -0.0501152 -0.014293 0.17875 0.0170145 0.150088 -0.0342808 0.110481 -0.0741381 0.0849173 -0.00932404 -0.0246452 0.148883 0.0382406 0.0569259 0.0618663 -0.082721 0.107639 -0.105005 -0.161154 -0.0531992 -0.020202 0.099517 -0.115704 0.0155445 0.11804 -0.0258909 -0.00351827 0.00139733 0.0401058 0.0243504 0.00849365 -0.118457 -0.00444148 -0.0545578 
0 25 0.158313 -0.020897 -0.0372362 -0.0852581 -0.025348 -0.262378 -0.015267 -0.0394538 -0.0171839 0.0143721 -0.0839965 -0.0468 0.0196799 0.0170101 -0.0943947 0.120234 0.0117425 -0.0122779 0.0475238 0.152962 -0.088954 0.28921 0.103374 -0.0873676 0.0025202 -0.047608 0.11859 -0.0725249 -0.088392 -0.103334 -0.126173 -0.0887278 0.0107452 -0.146387 -0.0645019 0.0409418 -0.0224646 0.152535 -0.12734 0.00252461 -0.0984901 0.055043 0.0231419 -0.0175 -0.0142133 -0.108796 0.0833692 -0.0932718 0.213322 0.0885681 0.119316 0.0589889 
0 26 -0.0204706 -0.018134 0.058343 -0.190224 -0.111949 -0.00138869 0.152019 -0.00571715 0.154816 -0.0441104 -0.012944 -0.034489 0.130108 0.104428 0.0826657 -0.135868 0.010938 0.0535679 -0.142537 0.0104242 0.0674787 0.183218 -0.0627546 -0.00530785 -0.0226913 -0.175897 0.0358405 -0.058787 0.0203005 -0.128947 0.267947 0.0171138 -0.118353 0.0251684 -0.0323159 0.0855911 -0.171171 -0.0915576 -0.0222237 -0.25182 -0.0146128 -0.0132969 0.0117844 -0.00188885 0.141042 -0.0345725 0.00808609 -0.133746 -0.0389286 -0.117695 -0.0790785 0.0488323 
0 27 -0.0418643 -0.0237226 -0.11898 0.0268123 -0.358991 0.192414 -0.0394369 -0.0820472 0.0374196 0.0191432 0.101901 -0.256696 -0.16835 0.0333594 0.0536049 -0.0522409 -0.00633834 -0.000288785 -0.020521 -0.20114 0.0324949 0.037541 0.153231 -0.394196 -0.08186 -0.020414 -0.0598533 0.0885736 -0.00100605 -0.0956959 0.0273843 -0.313839 -0.00405618 -0.0539428 0.0525997 0.0460715 -0.21339 -0.11699 -0.0593172 0.192252 -0.117064 0.0027538 -0.0182137 -0.156002 -0.048936 0.0259715 0.0284709 -0.25182 -0.0757138 -0.0486779 -0.124489 -0.0106493 
0 28 0.0603967 0.144279 -0.153537 -0.0034809 0.0423193 -0.187879 -0.0511533 0.0179815 0.000317913 -0.214881 -0.0298706 -0.070365 -0.198794 0.195421 0.0647793 -0.0251332 -0.155709 0.0761138 -0.248958 -0.0124854 0.0145932 0.121854 -0.135777 -0.167222 -0.0337215 0.258328 -0.0415117 0.0346997 0.0380145 -0.0754998 -0.0167079 0.118188 0.0839068 -0.251872 -0.115561 -0.10271 0.184934 0.0381272 -0.108034 -0.0136173 -0.00349623 -0.0600318 0.0898721 0.046288 -0.0796323 -0.0296007 0.135792 -0.1969 0.00994514 -0.0909116 -0.191484 0.0342982 
0 29 0.0470413 -0.160298 -0.0708526 -0.309261 0.0798927 0.046474 0.0731127 -0.111667 0.115817 0.0546392 0.128433 -0.287809 -0.138673 0.0457066 -0.0504393 0.0648507 0.0663903 -0.0292886 0.0104513 0.113813 -0.0515647 0.0554218 -0.117925 0.0142841 -0.155169 0.0357573 0.115165 0.0133266 0.188005 -0.146014 -0.114021 0.143639 0.0968052 -0.041709 -0.107698 0.0262188 -0.00953716 -0.0622153 -0.023851 0.0187393 -0.089628 0.0743546 0.0206802 -0.0294492 -0.101861 0.177153 -0.0998561 -0.10371 -0.155237 0.0402739 -0.0322577 -0.0472941 
0 30 -0.0717766 -0.0685813 -0.0464227 0.254606 0.0358982 -0.0752821 -0.116022 -0.0815994 0.0307253 0.0466516 0.0765936 0.135842 -0.0322273 -0.0940111 0.0338571 0.0601711 -0.141878 0.0136152 -0.0856775 0.0439104 0.284078 -0.128271 -0.167833 0.0651546 0.0802473 -0.193475 -0.0527632 0.0316108 -0.079984 -0.262999 -0.144162 0.0771452 -0.148903 -0.0919878 -0.0839143 0.0805127 -0.0333884 -0.120417 0.0521587 -0.422819 0.131415 -0.129633 0.0453968 0.242761 -0.216392 0.0442054 0.0105103 -0.0313855 0.0386339 0.107413 -0.182344 0.0271769 
0 31 0.0939913 0.030513 0.000523819 0.0847773 -0.231402 -0.0750574 0.0597083 -0.0933505 0.101662 -0.0747864 0.0432484 -0.0336877 0.0781563 0.0122022 0.243405 -0.170991 0.00825182 0.0794325 -0.124633 0.00926635 0.137354 -0.00492097 0.0825107 0.142777 -0.0181542 -0.0578271 -0.192345 0.00176012 0.259175 0.0232723 0.0276733 -0.0724512 0.0134364 -0.109913 0.15315 -0.0497555 0.018255 -0.00613104 0.00189232 0.0312089 -0.180072 0.121961 0.0652331 0.24358 -0.00607491 0.12226 0.041785 -0.046126 -0.0647662 -0.0220139 0.0709166 -0.130575 
0 32 -0.0197431 -0.180913 -0.0822402 0.00198794 0.0284958 0.174832 -0.0213497 -0.0680145 0.0176103 -0.0158575 0.10691 0.0500972 0.114909 -0.106305 -0.0697287 0.0115422 0.0452584 0.0769955 -0.119545 -0.0815125 0.0297398 -0.0247105 -0.0667036 0.00477173 -0.0601291 0.0675234 -0.0686026 0.0774543 0.0267311 -0.0209185 -0.0374358 0.0555893 0.0674314 -0.00961728 0.0421953 0.1395 0.0448853 0.217569 0.165837 -0.0607836 0.0637551 0.0527446 -0.0176174 0.0793829 -0.0307528 -0.0143604 -0.118604 -0.321239 -0.13528 -0.0333778 -0.0356954 0.0416196 
0 33 0.110086 -0.0460885 -0.0517314 -0.0445591 0.0598535 0.161207 0.135762 0.0792282 -0.100788 -0.00162462 -0.0435965 -0.241299 0.290184 0.0890835 -0.0607507 0.100127 -0.124398 0.0846117 0.0744678 0.114697 -0.0942894 0.00484625 -0.0438777 0.219993 0.0654439 0.0882089 -0.286143 0.0708609 0.00803544 0.0229794 -0.188815 0.09687 0.0136755 0.0632859 -0.0878507 0.0795437 0.0226729 -0.0244335 0.189354 0.259428 0.00403177 -0.0780836 -0.132416 0.140226 -0.00136871 -0.11024 -0.00374495 -0.0447097 0.0105566 0.156549 -0.114332 0.00257411 
0 34 0.106979 0.00146768 0.243542 -0.0110601 0.0434905 0.242546 -0.0218852 0.014013 -0.12597 0.0365553 -0.062717 -0.130481 -0.0529022 0.0948106 -0.0354165 0.0939939 -0.025091 0.0637625 -0.0475542 0.0635227 0.14307 -0.00799144 0.142346 0.0619865 -0.0709302 0.0312985 -0.0549251 0.0637651 -0.0166937 -0.13528 -0.102816 0.19628 -0.0292546 0.0757381 0.0100981 -0.0353511 0.0183189 0.099206 0.000775353 -0.058359 0.0186777 -0.0286522 -0.0336544 -0.0338739 0.0386326 0.0603364 0.299058 -0.126374 -0.137727 -0.106302 -0.0177029 0.141127 
0 35 -0.274224 0.0104537 -0.304767 -0.0249965 -0.102468 -0.211172 -0.340058 0.0749448 0.0612498 -0.221125 0.556907 0.517167 -0.737298 -0.24726 -0.0729929 -0.154951 0.148497 -0.0975741 -0.505311 -0.087131 0.248808 -0.239895 -0.124189 -0.147966 -0.110812 0.0663138 -0.815678 0.664539 0.236078 0.0987647 0.179541 1.02264 -0.516063 -0.762813 -0.142118 0.185139 -0.158684 -0.105261 -0.579572 -0.0117926 0.640257 0.319246 0.0178845 0.0427746 0.0674374 -0.0343313 0.374955 -0.470917 -0.00533766 -0.200899 0.135825 -0.0246441 
0 36 0.173375 0.0115443 -0.221796 0.0817601 0.209171 0.151665 0.0969432 -0.0690941 -0.00600376 0.143927 -0.225349 -0.116651 0.365029 -0.177297 0.197983 -0.205321 0.0741531 -0.0760097 0.0160944 -0.172959 0.302408 0.183952 0.211601 0.0778753 -0.218203 -0.0666218 0.034788 -0.132013 -0.165096 -0.0270323 -0.00726319 0.378613 -0.133591 -0.070673 -0.0122598 -0.0992947 0.0665453 0.215995 0.0436995 -0.00176426 0.0105307 -0.311131 -0.0818755 -0.0437728 0.0264057 -0.140028 0.190871 0.0795086 0.143546 0.0958927 -0.0309644 0.0290529 
0 37 -0.157424 -0.0284552 -0.0613105 -0.196613 0.111288 0.0160454 -0.0451497 -0.0135351 -0.118427 0.056558 -0.233202 0.08591 -0.0802115 0.0734405 0.0267949 0.00347885 0.0263403 0.154474 -0.102797 -0.132266 -0.0387882 -0.0231563 -0.0725193 0.165808 -0.0263877 0.0584644 0.103538 0.287109 -0.172009 -0.384045 -0.392115 -0.0575943 0.0260401 -0.0106258 -0.215114 0.0830234 -0.0370531 0.0514156 -0.188863 -0.134961 0.051772 0.0604658 0.178498 -0.0618773 0.0237506 -0.00878441 0.0291104 -0.0609784 -0.0733932 0.0860638 0.0156473 0.0280062 
0 38 -0.122544 -0.0943812 -0.1149 -0.00162849 -0.0639258 0.142685 -0.00348824 0.198396 -0.0635716 0.0221412 -0.00225005 0.0365597 0.0627067 -0.175962 0.109096 0.114479 -0.0121998 0.0426538 -0.0170718 -0.022327 -0.150311 0.0107159 0.0607875 0.054622 0.144288 -0.218955 0.242272 -0.00483741 -0.150467 -0.156449 0.0577326 0.253273 -0.0705571 0.135847 -0.0996965 0.157767 0.116896 -0.0416164 0.0797919 0.0423051 0.0690186 0.039406 -0.0783922 0.0321965 0.0286267 0.111753 -0.110076 0.362728 -0.131093 0.231541 -0.0571601 0.00817897 
0 39 -0.0242489 -0.17404 0.137232 0.0749478 0.0944532 -0.181952 -0.0171765 0.0528258 -0.0735155 0.0482337 0.0734766 0.155398 0.0188412 -0.0176278 -0.138347 0.104287 0.0216242 -0.0579008 -0.00753123 -0.029524 0.133839 -0.0204636 -0.046732 -0.150152 0.0525104 -0.0520718 0.0100973 0.0750482 0.0977515 0.0344535 0.0507036 0.0222538 0.113171 0.00712673 0.0604051 0.053146 -0.0042485 0.0175309 -0.0181107 -0.114317 -0.00550941 0.00958358 -0.00929101 -0.0172893 -0.0394779 -0.043251 0.203633 -0.0536376 0.0975865 -0.0546074 -0.0722057 0.192174 
0 40 0.0460836 -0.12643 -0.0645372 0.00140494 0.0959244 0.00954546 0.115748 0.0236341 -0.0709467 0.158869 0.128 -0.17475 -0.0302491 0.155941 -0.140673 -0.187604 0.268573 -0.0914156 -0.133047 -0.0824666 -0.107362 -0.202149 -0.0658153 0.0428877 -0.115172 -0.0685236 -0.131262 -0.327931 -0.0190019 0.0849122 0.0922665 0.136232 0.00324663 0.00732644 0.0737142 0.0231131 -0.0309106 0.0348004 0.018269 -0.0797497 -0.0990441 0.0965541 0.14161 -0.188857 -0.0090698 -0.0865647 -0.0153071 -0.00358637 -0.113362 -0.153901 -0.0221738 0.123387 
0 41 0.0141109 -0.00671596 -0.256468 0.0650759 0.0277312 -0.0422843 -0.11807 0.0767948 -0.135221 0.0518762 -0.0427744 -0.0525181 0.0428538 0.10023 -0.075757 -0.115963 0.0545853 -0.0681628 0.00645745 -0.0235046 0.0823208 0.0673508 0.0326316 0.0243143 -0.032712 0.00470927 -0.134706 -0.0957243 -0.0434295 -0.054624 0.0203047 0.136211 -0.0825081 0.145967 0.0893487 0.0247884 0.177282 0.129608 -0.144586 -0.0509643 -0.0087862 0.0228528 0.0979968 0.042686 -0.0138509 -0.171433 0.0759311 -0.0751706 -0.0722709 -0.0497737 -0.0843917 -0.0348738 
0 42 -0.109829 0.0468167 -0.0542356 -0.0210376 -0.0854555 0.106001 -0.0741032 0.0823486 -0.075883 -0.177292 1.36221e-05 -0.00935612 0.136456 -0.163871 -0.189708 -0.238228 -0.186186 0.0908738 -0.137337 -0.0974609 0.192745 0.127464 0.0170821 0.0471869 0.0453044 0.0362196 -0.174034 -0.0344199 -0.0812965 0.0183152 0.0180585 0.0409317 0.180178 0.0639561 0.00163035 -0.0688781 0.181512 -0.0218823 0.0119394 -0.074889 -0.0189936 -0.0846793 -0.0068461 -0.0614339 0.0440332 0.0139689 0.133563 0.0383738 -0.0488482 0.097208 -0.0367797 -0.00231151 
0 43 -0.223614 0.0597548 -0.091614 0.0407804 0.151857 -0.0647265 0.130891 0.0535309 -0.182479 -0.221858 -0.0129227 -0.0102794 -0.0423364 -0.172899 0.00156521 0.0815478 0.157211 -0.0553729 -0.144592 -0.029383 -0.0473133 -0.0482414 -0.0630862 -0.054033 0.0671278 -0.0655502 -0.129069 -0.108696 0.22185 -0.0568553 0.0319157 0.000928847 0.295167 -0.248721 -0.171674 0.0432157 -0.0487994 0.019851 -0.162096 -0.0464661 0.0653366 0.123837 0.062844 -0.0255085 0.165455 0.052163 -0.0182066 0.0477774 -0.114823 -0.0253783 0.0201762 0.0295904 
0 44 0.0465108 0.277161 -0.0269669 -0.232278 -0.206305 -0.24034 -0.0928749 0.285757 -0.251649 -0.0222953 -0.0374948 0.23276 -0.595359 0.0278076 -0.394955 -0.374467 -0.451732 0.112185 -0.0854966 -0.0256169 -0.253713 -0.128759 0.122474 -0.25832 0.0552067 -0.0206688 -0.463414 0.173902 0.157047 0.144701 -0.0552048 -0.436048 0.33397 -0.018574 -0.29034 0.150058 -0.416239 -0.0739495 0.0443577 -0.0524996 -0.492104 -0.0212122 0.082928 0.000437147 -0.0379116 -0.243985 -0.556359 0.157292 -0.224016 0.00600593 -0.0629778 0.095144 
0 45 0.162536 0.0294627 0.192718 0.0456581 -0.106775 -0.011857 0.0589424 0.00290417 -0.0911185 -0.0381776 0.017894 -0.0566698 0.123532 0.0245082 0.0163756 0.206079 -0.097731 -0.0946316 -0.035062 -0.164082 -0.0676022 -0.051012 0.0636405 -0.300333 0.0589956 -0.157347 0.16063 0.170182 -0.153109 -0.031459 0.257284 -0.0615067 -0.000509729 -0.0313077 -0.151798 0.275322 -0.141617 0.134734 -0.01571 0.0449211 0.0619103 0.377033 0.0311186 0.0272744 0.089931 0.018388 0.116717 -0.0922955 -0.015227 0.160943 0.295019 -0.0113301 
0 46 -0.115281 0.182391 -0.0708597 -0.160764 0.168054 0.0593964 0.24799 -0.187998 -0.0866908 0.00848061 0.0958444 0.0745362 -0.0326263 -0.191657 0.111232 -0.447976 -0.0317656 -0.0312079 0.0809461 -0.0266021 -0.169568 0.187285 -0.0805645 0.257705 -0.214826 0.0435141 -0.005216 -0.154796 -0.140542 0.17019 -0.131226 0.167291 0.077375 0.130846 -0.0534929 0.0513069 -0.073544 0.0127861 -0.111356 0.0477408 0.016237 -0.150743 0.124779 -0.0965999 0.0589787 -0.112574 -0.301575 0.0394612 0.103763 -0.0148591 -0.102228 -0.0848 
0 47 -0.0345887 -0.00698677 0.102058 -0.0315541 -0.0846897 -0.0325201 0.0257393 0.0961937 0.0452622 0.0391008 0.00869433 -0.0776847 -0.0166017 -0.0617337 0.196962 0.0909119 -0.0535317 0.104397 0.0196627 -0.0740894 0.0835722 0.120351 -0.0516273 0.0835378 0.00256978 -0.151189 0.154778 0.0260996 0.00451277 0.0121249 -0.0770115 -0.00880681 -0.0650178 -0.179754 0.0323275 0.135485 -0.00607369 0.0607258 -0.0571974 -0.00243626 0.147758 -0.129805 -0.0891149 0.091005 0.0193945 0.221653 0.054872 0.113889 0.0297601 -0.076003 -0.128294 -0.0713228 
0 48 0.060309 -0.0038522 0.162972 -0.259488 -0.00522867 0.0270591 0.109594 0.0481722 0.0781731 -0.0954849 -0.0835438 0.00682453 -0.030858 0.198059 0.029854 0.127239 -0.0447679 0.136744 0.0776994 0.200691 0.0917432 0.0378223 0.0384916 0.104637 -0.0483441 0.145531 -0.00410652 -0.108675 0.158899 -0.0589976 -0.0388468 -0.0124658 -0.0571379 0.0687203 0.209776 -0.0850304 0.0601349 -0.0527917 0.166204 -0.196829 0.0467723 -0.00467346 -0.125898 0.0101721 0.0626958 0.103786 -0.000700479 -0.058805 0.0198973 0.0864048 -0.12691 0.0167471 
0 49 0.0556938 0.16936 -0.209483 0.0756714 0.13967 -0.223211 -0.000329592 -0.0203739 -0.0299188 0.0670333 0.118436 -0.252663 -0.135654 0.109442 -0.104984 -0.0874287 -0.114901 -0.0299386 -0.0429541 0.0857954 -0.246765 -0.11289 -0.159386 0.101575 -0.0724427 -0.201648 -0.0498135 -0.289867 0.207275 0.158214 0.0770901 -0.050171 -0.00834513 -0.0158178 -0.157497 0.18635 0.00535594 -0.141757 0.0803254 -0.38897 -0.053734 0.149057 0.0838713 -0.155416 -0.154708 0.0273763 0.021829 0.0461712 0.0157104 -0.0345455 -0.146238 0.0290042 
0 50 0.118262 -0.169655 -0.041845 -0.11774 0.00736233 0.129892 -0.00741286 -0.0124333 0.0403969 0.258576 0.11444 0.0736192 0.108943 0.185696 0.0970763 0.0259159 -0.0415256 -0.0803531 -0.0846383 0.0285782 0.0445734 0.203244 0.0361735 0.0295343 -0.181482 0.137988 -0.191383 0.122064 -0.00532986 -0.132488 0.135438 0.113978 -0.0224055 0.00885305 0.13861 -0.144962 -0.0722914 -0.00573106 0.1785 -0.100519 0.0129695 -0.121213 0.148842 0.120639 0.096009 0.037318 -0.0905984 0.0848456 -0.000185434 -0.143393 -0.00588028 -0.0518725 
0 51 0.0204028 -0.0873139 -0.0658032 0.104661 0.0524337 0.0310385 -0.103093 0.125467 0.0685319 -0.0819129 -0.123181 0.0183725 0.105874 0.0984333 -0.0368056 -0.147395 -0.0120955 0.114737 0.0553911 0.0360925 0.215159 -0.111082 0.100143 0.0321633 -0.0254185 0.160043 -0.0506782 -0.0271322 0.0396278 -0.120065 -0.0278963 -0.0897138 -0.0371436 0.131346 0.116554 0.0415408 -0.00123833 0.035923 -0.0579705 0.0574023 0.0153341 -0.0596372 0.0483714 -0.0679777 -0.00459258 0.0425761 -0.0220266 0.0882738 0.0104598 -0.0782559 0.0319527 -0.100871 
0 52 0.053243 0.0635592 0.0862859 -0.0442711 -0.212072 0.0108364 0.04921 -0.10537 0.00372083 0.0529444 0.0387693 0.0953149 0.0941716 0.199813 0.0975309 -0.0266026 -0.18502 0.0794892 -0.110462 -0.0155302 -0.0631063 0.286981 0.0296798 -0.158531 0.0433472 -0.074044 0.0667922 0.130294 0.133542 -0.0217692 -0.125913 -0.0792376 0.0426972 -0.0282814 -0.119063 -0.0452639 -0.0849732 -0.0243469 0.193041 -0.040161 0.0332917 -0.0614682 0.0643029 -0.00371182 0.00130616 -0.0509984 0.100842 -0.0518698 0.145733 -0.0178669 -0.0148362 0.0957559 
0 53 0.0155064 -0.103866 -0.0711876 0.0715006 0.0253376 0.00809859 -0.0196415 -0.167839 0.0301403 0.183114 -0.0911532 -0.238352 0.203456 0.178703 -0.123444 0.213283 0.0469244 -0.000689345 0.00308059 -0.0702311 0.0237275 0.022226 0.0893722 -0.00589188 -0.257445 -0.0458303 0.0708023 0.135296 0.00793827 0.0113323 -0.108917 -0.195467 0.000995165 -0.0235756 0.163985 -0.0004918 0.0228415 -0.0306813 0.101659 -0.0169728 0.283958 -0.244544 -0.177839 0.0568557 0.353452 -0.131727 -0.0856785 0.184928 0.111525 -0.105426 0.0892811 -0.109589 
0 54 0.158039 0.186738 0.138054 0.257012 -0.114126 -0.0425651 0.0768216 -0.0332618 -0.00855241 0.165592 0.182605 -0.168173 0.174673 0.537295 -0.0876334 0.545202 0.127404 -0.311898 0.258239 -0.199827 0.364721 0.290358 0.0433236 0.207142 -0.0234616 0.0369589 0.1366 0.0295572 -0.0622837 0.208923 0.268083 -0.0721385 -0.12558 0.141018 0.0297398 -0.0989665 0.187856 0.0552404 0.0375019 -0.044898 0.467654 -0.0157392 0.0764273 0.286264 -0.191205 0.0290224 -0.17852 0.298789 0.0294442 -0.118715 0.22413 0.168518 
0 55 0.0642685 0.182232 -0.112282 0.0522976 -0.157016 -0.138792 0.201985 -0.0890008 0.0480913 -0.107562 0.129713 0.0766158 0.000584652 -0.0560232 -0.118125 0.302138 0.0437266 -0.0515502 -0.00274426 0.0648236 0.0303323 -0.0681923 0.118208 0.0206347 -0.0470295 -0.0347639 0.0267794 -0.0368836 0.0171652 0.00431328 0.201264 0.0699495 -0.02768 0.190208 0.0642098 -0.0335601 0.0610062 0.145706 0.00926175 0.116853 -0.0704853 -0.140426 -0.116972 0.130074 0.113957 -0.107143 -0.0930003 0.208043 0.180287 -0.107787 -0.0676441 0.0953902 
0 56 0.0391797 0.0403862 0.0331004 -0.0205096 0.0846879 -0.115478 -0.140048 0.161821 0.115317 0.0421902 0.0257238 0.0465938 0.0231839 0.107068 -0.201555 0.167923 0.148812 -0.201315 -0.0688866 -0.208592 -0.283298 0.100103 -0.0569143 -0.0771335 0.156805 -0.0166952 -0.00836753 -0.221371 0.0393371 -0.238669 0.065236 -0.0968327 -0.138679 -0.0231928 -0.0347923 -0.167035 -0.0414038 -0.137168 0.0640306 -0.264795 0.020264 0.150725 0.0584638 0.0876799 -0.107256 -0.214947 -0.00326075 -0.149674 -0.117255 -0.0768354 0.112679 0.045192 
0 57 -0.0547351 0.0790763 0.0695245 0.0267824 0.0722945 -0.0478877 -0.130025 -0.173821 -0.0359051 -0.144465 0.162026 -0.0100203 0.0172432 -0.117179 -0.135314 -0.0251006 0.0227055 0.0820599 0.12956 -0.0495942 -0.0801868 -0.254619 0.06513 -0.0305863 0.0977378 0.0334402 0.0946941 -0.0273417 0.0175661 0.153318 -0.225516 -0.038052 -0.119609 -0.00152538 0.019611 0.021196 0.071776 -0.0855947 -0.0387577 -0.0978061 0.0617351 0.189379 0.200737 -0.023262 -0.023114 0.0101905 0.066708 -0.0912405 -0.0410678 0.173861 -0.0158864 0.0869828 
0 58 0.0384033 -0.0911594 0.163226 -0.348304 -0.0990197 0.0253359 0.0545431 -0.0445633 -0.0781998 0.157462 0.0866191 -0.261499 0.0195649 -0.164123 -0.155313 -0.161947 -0.0827906 -0.0163325 0.0394872 0.00530409 0.00461757 -0.0584218 -0.124364 -0.329827 0.0264417 -0.14041 -0.362626 0.168257 -0.192369 0.115982 0.165744 0.0356527 -0.125025 0.0529457 -0.00177505 0.019357 -0.100026 0.122369 0.0983562 -0.131716 -0.0853897 -0.128735 -0.0251554 0.113586 -0.096567 -0.000813636 0.0825905 -0.332365 -0.0316354 0.0550928 -0.157038 -0.0201278 
0 59 0.0813262 -0.0904739 0.0972079 -0.0783152 0.0549348 0.017118 -0.00918175 -0.0633303 0.0817779 -0.0494543 -0.000567194 -0.153227 0.129564 -0.0704491 -0.120259 0.0636796 0.0400436 0.0803386 0.00395081 0.00612353 -0.0529617 0.121663 -0.125064 0.106213 0.0165795 0.136073 -0.0114951 -0.00902365 -0.0215431 0.175232 -0.209788 0.200948 0.158966 0.166069 -0.0662289 -0.0657378 -0.00278613 0.0414635 -0.10667 -0.0112749 -0.0608425 -0.0125592 0.0278935 0.0485529 0.0643053 -0.058334 0.0379165 -0.211257 0.0548163 -0.00981961 0.0875662 0.101326 
0 60 -0.117952 0.158806 0.100799 -0.113959 -0.0204024 0.0508488 -0.0507551 0.046841 0.142088 0.0712782 0.193187 -0.061814 0.0113547 -0.115427 0.0643686 -0.125686 -0.0599331 -0.185044 0.0540028 0.0477478 -0.205755 0.0600867 0.0501471 -0.0849791 -0.00438835 -0.0858779 0.0282123 0.120313 -0.021329 -0.134828 0.0173316 -0.0445103 0.0203896 -0.0387652 0.0433339 0.0716988 0.12773 0.124293 -0.0246672 0.0512805 0.113098 -0.025124 0.0291548 -0.095297 -0.047306 0.0466939 -0.0145003 -0.134582 0.0767319 0.0145225 -0.0951658 0.00700746 
0 61 0.1776 -0.0618524 -0.19019 0.239688 -0.00760843 -0.0260907 0.0305648 0.185896 0.142779 -0.0447128 0.00513659 0.124126 -0.123994 0.189943 0.0433453 0.00883865 0.182832 -0.116467 0.068253 -0.0248882 -0.0308003 0.248235 0.0769555 0.0757752 -0.0406891 0.167506 0.129336 0.00111141 -0.178027 0.00300151 0.190458 0.0842498 0.0660751 -0.0515383 -0.153223 0.0421324 0.128727 0.176657 -0.0544893 -0.000472995 0.0542094 -0.0751056 -0.0964547 0.0942723 -0.107326 0.141629 0.0554248 -0.14521 0.0472902 -0.0691055 0.0185707 0.177013 
0 62 -0.10171 -0.000482847 -0.09107 -0.0900059 -0.0710003 -0.0944287 -0.131274 0.044597 0.0760667 -0.0485514 0.238541 0.0179344 -0.296461 0.0105091 -0.0324024 -0.0431217 -0.00751626 0.143858 -0.106183 -0.0446748 -0.0988348 -0.0791809 0.0220106 -0.0339284 0.16778 -0.0305975 -0.0445089 0.131269 0.128039 -0.133192 0.115555 -0.140506 0.000232814 0.335038 -0.0193086 -0.015034 0.0480963 -0.0578543 -0.0960458 -0.114884 -0.0442231 0.0901957 -0.192169 -0.00697662 -0.036522 -0.0581926 -0.110217 -0.120378 0.0601902 -0.0904604 -0.120494 0.162517 
0 63 -0.114207 -0.0169236 -0.117572 0.0197971 -0.0840396 -0.0655343 -0.0402456 0.0680007 -0.122144 -0.102378 0.0438599 0.024232 -0.021812 0.0357447 -0.0736835 0.0176838 -0.251931 0.0172309 0.0385722 0.045461 -0.115488 -0.139252 0.0599412 -0.0503251 -0.140277 -0.0362234 0.0203626 -0.0967884 0.143102 0.112714 0.0915585 0.0199129 0.106656 -0.236717 -0.122927 0.105385 0.126335 0.0357388 0.0959568 0.124199 0.0838253 -0.0549558 0.0576427 0.0235481 0.163879 -0.0596675 0.0322799 0.161875 -0.0372672 -0.0192815 0.0836998 -0.179206 
0 64 -0.116734 0.064181 -0.144164 0.212154 -0.0415197 -0.0659957 0.0574325 0.204539 0.212537 0.0235412 -0.0393994 -0.167135 0.180289 -0.172033 0.0172 0.0524202 -0.107484 0.0824672 0.0677398 0.14437 -0.115873 0.0618157 -0.0453287 -0.179523 0.120534 0.0174762 0.0415263 -0.0361101 0.038178 -0.0104828 0.0329098 0.029042 -0.111286 -0.0839517 0.0436499 0.151185 -0.179702 0.0614694 0.0196083 0.206021 0.00496045 0.109321 0.0351709 -0.0335977 0.0154558 0.0487895 0.0112884 0.0889615 0.0313623 -0.0109649 0.0577681 -0.105869 
0 65 -0.0779692 -0.000310839 -0.201442 -0.022028 -0.0429262 0.105701 -0.216381 -0.00669217 -0.0261428 -0.0692408 -0.485597 0.244391 -0.0361926 -0.0167615 -0.0729575 -0.124067 -0.124307 -0.0158358 0.201983 -0.192978 -0.139059 -0.28741 -0.130577 0.00529584 -0.0404929 -0.034773 -0.0508397 0.0320312 0.186241 -0.090464 0.0533862 0.0725622 -0.250126 -0.269598 -0.275511 0.230915 0.00863766 -0.114787 0.130645 -0.114268 -0.386936 -0.0184375 0.0930807 -0.0140467 0.00518241 -0.0922258 0.0333543 -0.115422 -0.0667545 -0.189844 0.119915 0.0142213 
0 66 -0.00938824 0.0842742 -0.0064384 0.0446346 -0.0327534 0.0890952 0.157866 0.0890321 -0.0976638 0.0645878 0.0524879 -0.0872541 -0.0493496 0.0726927 -0.00462047 0.0967788 0.169172 0.127054 -0.060772 -0.00352951 -0.00950982 0.00558456 -0.109111 -0.0163934 -0.286622 -0.0139829 0.0854588 -0.0883041 0.0740144 -0.0114141 0.021943 -0.0695114 -0.123543 0.0591579 -0.0359265 -0.0780005 -0.0239275 -0.114972 -0.00373271 -0.103944 -0.139166 -0.0940134 -0.049148 0.0933342 -0.104459 -0.0347083 -0.116378 0.0340826 0.0426138 0.0445051 0.0303636 0.134548 
0 67 -0.0372495 0.213482 0.0192882 -0.010002 0.104147 0.112755 0.0714735 0.0961618 0.202036 -0.134186 -0.0293568 -0.025561 0.152922 0.197543 -0.104182 -0.0560392 0.0350271 0.018335 0.0532854 0.128061 0.0264703 0.0717226 -0.0108272 -0.146887 0.245132 -0.206025 -0.0162633 -0.110887 0.107683 0.00898562 -0.149743 -0.0719989 0.0249786 0.0681 -0.0724834 0.00406936 0.0160765 0.0561862 -0.00178224 0.0134395 -0.0661713 0.0203987 -0.0666394 -0.0640232 0.113422 -0.0412304 -0.038246 -0.106945 0.187326 0.0330254 -0.019278 -0.0203634 
0 68 -0.0383437 0.0663381 0.110535 -0.0463993 -0.10974 0.0684635 -0.0345054 0.0963678 0.0384231 -0.0919495 0.166524 -0.00503413 0.00420106 -0.240876 -0.153747 0.0463055 0.206859 0.0556517 -0.043163 0.053895 -0.054061 -0.0250724 0.040788 0.0368314 -0.00177556 0.0759356 0.0837367 0.0642197 0.08108 -0.0631553 0.16582 0.257934 -0.0194947 0.00196357 0.128987 0.222024 -0.053058 -0.0469034 -0.105485 0.0271087 0.11208 -0.0590966 -0.0583931 -0.100112 0.0365473 0.125461 0.091398 0.00638547 -0.0987604 -0.0378756 0.181923 0.0412992 
0 69 0.0756684 0.0344162 -0.0157959 0.064022 0.0469675 0.0649881 0.134664 0.0225438 0.0153438 0.0392867 -0.0657099 -0.173717 0.0608517 0.165752 -0.120103 0.00971523 -0.110078 -0.0179679 -0.0325803 0.0952941 -0.21673 -0.0210166 -0.0547617 -0.103787 -0.0160388 -0.0831361 0.212432 -0.0445022 -0.146093 -0.0316464 -0.0251745 0.00162176 -0.0356492 -0.201348 0.23104 -0.00101769 -0.00868548 -0.165422 0.0308059 0.00270495 0.0926037 0.0806319 -0.0277218 -0.153519 0.0286733 -0.156502 0.0670127 0.113059 -0.120601 -0.0686196 -0.114096 -0.193736 
0 70 -0.0215989 0.206363 0.0498732 0.0586212 -0.173866 0.167636 0.060724 0.327196 -0.0299975 0.0820355 0.067784 -0.0620669 -0.00880221 0.0700136 -0.137201 0.0489737 0.265662 -0.0170286 -0.173513 0.109722 -0.0935539 0.0352455 -0.163014 0.0761945 -0.0368715 -0.0393445 -0.0503148 0.119975 -0.0169529 -0.156963 -0.178593 0.15218 0.0292334 0.0564926 -0.0208406 0.0751805 -0.0486524 -0.0770615 -0.0353118 0.0333856 -0.0472953 -0.074258 0.0511 -0.135029 0.326894 0.020953 0.0118771 0.00143312 0.0627153 0.00521588 0.0719858 -0.0465319 
0 71 0.0123202 0.00484792 0.10228 -0.0641861 0.187659 0.103935 0.0749116 -0.00518227 0.23509 0.0512102 -0.0886292 0.227112 -0.00577748 -0.11926 -0.121496 0.0159403 0.129388 0.013038 0.0929879 0.0499827 -0.0222861 -0.0279797 0.0355207 -0.0148667 -0.0456081 0.176139 0.163481 -0.10867 0.187936 -0.0103205 0.122597 -0.0285828 -0.0648113 -0.123912 -0.173966 0.0418732 -0.0282223 -0.122846 -0.0852527 0.0726031 0.0775622 0.126885 0.121003 -0.0338953 0.0107052 -0.103827 -0.0238945 0.033186 -0.159538 0.0263416 -0.148477 -0.147283 
0 72 0.00912917 -0.0901315 -0.0402059 -0.0293869 -0.101582 0.16307 0.256935 0.0270232 -0.0446228 0.113471 -0.0925485 0.0663708 0.0754464 0.0486339 0.0454536 0.0215688 0.0718658 -0.0761933 -0.0534645 -0.104948 0.0137991 -0.0124028 0.164062 -0.0963274 -0.112465 -0.0670212 -0.0119979 0.172155 0.111111 -0.00954538 0.0226921 -0.00226022 -0.145787 -0.105624 -0.145187 -0.0544838 -0.0569972 0.0335454 -0.0213213 -0.024868 -0.0667553 -0.0155256 0.149999 0.0592686 -0.0183861 0.0230519 -0.103185 0.101846 0.083421 0.0159889 -0.111844 -0.0751297 
0 73 0.0455073 0.00233663 -0.260014 0.151794 -0.201315 -0.158664 -0.0805477 0.0866114 0.0936485 0.0373843 0.0187457 -0.114958 -0.105793 -0.0378496 -0.322119 -0.2186 -0.057398 -0.136053 -0.123569 0.0357718 0.0365785 0.0135552 -0.160785 -0.0801883 -0.10757 -0.0573898 -0.0123848 0.0911332 -0.0525825 -0.00472988 0.0524908 -0.0477827 -0.0993382 -0.0452273 0.124206 -0.211368 0.0495877 0.11635 -0.23344 0.0329175 0.00573444 0.0868084 -0.0109553 -0.263978 0.156464 0.0166652 0.129479 -0.326783 -0.107293 0.103211 0.098133 -0.224496 
0 74 -0.0428149 -0.0421498 -0.0834746 -0.121559 0.00844966 0.0754769 -0.0489536 -0.0188846 0.153564 0.107476 -0.169508 -0.162289 -0.126533 0.0974842 -0.0869415 -0.00582645 0.00848696 -0.107426 -0.0525437 -0.0144743 -0.0664548 0.0609986 0.0491312 -0.0713792 0.0527106 0.00475157 0.131225 0.133591 -0.250393 -0.129 0.13176 0.00818664 -0.193468 -0.0188233 -0.0902402 -0.181509 -0.0664494 -0.220733 0.0167779 -0.175839 -0.106354 0.0147139 -0.0779387 0.00897356 -0.0252948 0.0764345 -0.0684226 0.0783707 0.0884306 -0.225063 0.0292008 0.213185 
0 75 -0.0680088 -0.10308 0.0372024 -0.100398 -0.125141 -0.115875 0.0223761 0.0558931 0.0155783 0.0141929 0.061391 -0.115212 -0.0132742 0.281196 0.050388 0.0747649 -0.141165 0.10529 -0.201286 0.0715861 0.0491391 0.175952 -0.0653849 0.189018 -0.111662 0.0099881 0.0511807 0.16924 -0.167811 -0.0506976 -0.0616745 0.113966 -0.0697225 0.0894008 -0.0445263 0.114322 0.0402242 -0.191916 -0.11932 -0.124241 -0.0558286 0.0203658 0.0814518 -0.166335 -0.106691 -0.0981134 -0.186194 -0.0791242 0.185598 -0.129675 0.0324283 -0.185631 
0 76 0.10597 -0.0943379 -0.00760512 -0.110119 -0.126075 0.192873 -0.0567148 -0.0212274 -0.0965073 0.0684623 0.153762 0.218794 0.223116 -0.129569 0.0119669 -0.077433 0.106215 -0.0616332 -0.148342 -0.0895891 -0.0092014 0.0752656 0.0595664 0.093278 -0.0840463 0.0501656 -0.0684914 0.0950194 -0.152014 0.107087 -0.0958919 -0.033266 -0.0811628 0.0822087 -0.152303 0.146022 0.0716582 -0.076406 -0.0580555 0.0732071 -0.110581 0.227799 -0.108363 -0.0462763 -0.0857428 -0.0136341 0.0350368 0.143055 -0.0199423 -0.0764388 0.0696281 -0.0105246 
0 77 -0.00822193 -0.117771 0.045103 -0.0494746 -0.0480287 -0.0681254 0.0742737 0.157469 -0.116899 -0.0739041 -0.0666958 0.0932809 -0.139533 0.11385 0.0204071 0.0135728 -0.0313878 0.0470318 0.152744 0.027854 -0.0398849 0.0782888 0.0592075 -0.0480428 0.16026 0.0609207 -0.246517 -0.0257479 -0.0299625 0.0571104 0.0472114 -0.0397602 -0.0670875 0.113333 0.00593614 -0.015598 0.0105802 -0.0638571 -0.00647453 -0.354234 0.212566 -0.0691481 -0.0748488 0.0707786 -0.0465976 -0.0474695 -0.083094 0.0447416 0.161682 -0.0656348 -0.20168 0.180967 
0 78 -0.0322021 0.0295377 0.0673997 -0.00552253 0.0598474 -0.0618608 -0.114858 -0.0611228 0.183655 -0.143809 0.11508 0.106152 -0.0403413 -0.0536005 -0.105069 0.0950872 -0.0539508 -0.0240385 0.0694067 -0.102295 -0.00754964 0.00610565 -0.0812806 -0.0371545 0.111399 -0.148908 -0.0446025 0.00316047 -0.220182 0.026968 0.011098 -0.121397 -0.203499 0.116288 -0.0261909 0.0545348 0.0900719 0.0771387 -0.0810383 0.0333558 0.0251818 -0.0802222 -0.0458737 -0.0632855 0.0778778 -0.0950296 0.113693 0.0194961 0.0167904 -0.0360239 0.0733883 0.06043 
0 79 0.122796 -0.0875896 0.131258 -0.0370893 -0.0721092 0.0700783 -0.00726101 -0.114591 0.131837 -0.162009 0.0431904 0.0169791 -0.0187389 0.139035 -0.0226159 0.144279 0.0382919 0.0179578 0.0590897 0.00798525 -0.0274226 0.15943 -0.0654002 -0.131429 0.183247 -0.0485152 -0.041048 -0.0500194 -0.153016 0.0063808 0.00859189 0.0562125 0.0582153 -0.116546 0.0528505 0.0737313 -0.0655576 0.174825 -0.0440293 0.0601934 -0.0388055 -0.072757 -0.0598196 -0.148885 -0.0794886 0.0709629 0.0231336 -0.015495 -0.00191913 0.115839 -0.06696 -0.160148 
0 80 0.1557 -0.119777 0.181784 -0.305366 -0.0461176 0.0655814 -0.00137001 0.185946 -0.0168825 -0.102787 0.0382158 -0.0260644 0.0512398 -0.160045 -0.041006 -0.0954362 0.0460173 -0.168842 0.0924127 -0.0503408 -0.0145482 -0.0080125 -0.296766 0.11627 -0.0470398 0.0282559 0.0702403 0.0715469 -0.0412028 -0.237658 -0.101453 -0.166725 -0.00755051 0.25968 -0.172344 -0.0159139 0.149361 0.0704409 -0.11017 0.0648096 0.119586 0.0613892 -0.244665 -0.0362529 -0.0470451 -0.0588712 0.0194066 0.0520024 0.0351606 0.0258243 0.0060057 -0.227993 
0 81 -0.0132211 0.07972 0.0485022 0.140088 -0.0621659 0.159932 0.0145753 -0.129957 0.0225376 -0.00606966 0.0090926 0.123828 -0.194065 0.0366996 0.0751829 0.127356 -0.0672734 0.0059321 -0.193488 -0.0364416 -0.0116368 0.0107929 -0.0533074 -0.0552903 -0.312728 -0.0258172 0.0917405 0.0750695 0.0671208 0.0918744 0.00329691 0.0183897 0.082366 -0.00552479 0.0260998 -0.241092 -0.188199 -0.123576 -0.0679938 -0.0726742 -0.0463209 0.0661644 0.162067 0.00667561 -0.099714 0.0949114 -0.0839668 0.0687338 0.00227484 0.0788386 0.0197364 -0.132963 
0 82 0.0413628 0.116978 -0.0383664 0.0244301 -0.12544 -0.0296857 -0.0386065 0.0832271 -0.0367897 -0.0912826 0.00198151 0.0519923 -0.0644586 0.0331061 -0.165054 -0.130367 -0.088873 0.0533979 0.0161985 -0.127751 -0.073608 0.101031 0.0882564 -0.111659 0.0652913 0.156833 -0.00720563 0.180875 0.0752461 -0.0177116 0.0599576 0.183435 -0.0599523 -0.0690541 -0.308759 0.132639 -0.117597 -0.0236595 0.0254369 0.212292 -0.199102 0.00930747 -0.182984 0.021464 0.0371894 -0.125255 -0.00697546 0.11272 -0.0111576 -0.17958 -0.0468825 -0.099652 
0 83 -0.0872485 0.0455259 -0.0438959 0.0719751 -0.263244 -0.126669 -0.0247697 -0.05125 -0.0703095 -0.110757 0.0630075 -0.0857459 0.0412924 0.161666 0.121572 0.0939996 0.0421666 0.00920568 0.00655964 -0.0740532 0.145972 0.0263088 0.0309734 0.114696 -0.0484828 0.144492 0.0326506 0.191812 0.0677048 -0.0895292 -0.121024 0.0401186 -0.0167431 -0.0449738 -0.163253 -0.0486995 -0.134407 -0.20359 0.0646409 0.0742163 -0.0943645 0.0134335 0.0822555 -0.0627264 -0.00214538 0.0380156 -0.103661 -0.0313778 0.0286047 0.0315237 0.14158 -0.083107 
0 84 -0.000374974 -0.190802 0.0553469 -0.0800366 -0.161702 0.142303 -0.0196619 -0.0657017 -0.0152532 -0.111173 -0.0461008 -0.222926 0.00601911 -0.0130413 -0.0719623 0.167044 -0.0617774 0.111236 -0.0767967 0.0777532 0.00164668 -0.0307207 0.0238014 0.0354251 0.0378509 0.132839 0.0333382 -0.0397337 0.0267176 0.0329401 0.0749418 -0.0816078 0.104321 0.0838595 0.0182858 -0.0675781 -0.111298 -0.0332292 0.090088 -0.350525 -0.0979192 -0.0900835 -0.0544491 0.0859938 -0.217624 0.01655 -0.0318672 0.143891 -0.0797772 -0.194685 0.0280142 -0.0292889 
0 85 0.0498229 -0.00690028 -0.109387 -0.0862198 -0.0853858 0.0364501 0.00724338 -0.183614 -0.170091 0.060284 0.136763 -0.401062 -0.0592973 0.00933353 0.146736 -0.215528 0.11035 0.00112921 -0.214324 -0.152809 -0.0140118 -0.251829 -0.38883 0.104916 0.122703 0.0608322 -0.0020381 -0.0836955 0.113201 -0.020717 -0.00367707 -0.118191 0.0324869 -0.107311 -0.0481038 0.00212574 0.0407946 0.0442528 0.0361395 -0.0921776 -0.236543 -0.122789 -0.102863 -0.0183485 0.079545 0.059128 -0.0269079 -0.0863443 0.0130504 -0.0964124 0.0440541 -0.0389207 
0 86 -0.116842 0.0527962 0.16335 -0.112373 -0.0592306 0.084702 0.0493441 -0.356119 -0.135427 -0.0890669 -0.154124 -0.294346 0.0945866 -0.183404 -0.0527151 -0.106813 0.101702 0.173879 0.0621357 0.0677833 -0.209711 -0.191003 -0.127363 -0.302686 -0.040645 -0.0979016 0.118755 -0.193005 -0.0521845 0.124476 -0.16982 -0.382616 -0.00511696 -0.0753455 -0.106204 -0.0136515 -0.144477 -0.0191619 0.143458 0.224498 -0.267302 -0.21815 0.0204461 -0.127125 -0.141462 -0.0237839 -0.210701 0.169368 0.0527712 -0.194306 -0.286445 -0.0387612 
0 87 -0.248237 0.0441506 0.0158816 -0.204046 0.0791672 -0.0737152 0.205741 -0.283787 0.017845 0.0769332 -0.0774552 -0.364671 0.160441 0.147502 -0.329952 -0.0517551 0.157156 -0.0997384 0.11528 -0.240521 -0.141592 -0.280488 -0.455857 0.430556 -0.111063 0.0596536 0.20752 -0.537507 0.154788 -0.125796 0.0310396 -0.176602 -0.00820495 0.0797669 -0.0710231 -0.0756115 -0.14177 -0.276105 -0.0575303 0.218066 -0.188975 -0.276406 0.104071 -0.0760179 -0.104085 -0.153182 0.237797 -0.451187 -0.012179 0.16429 0.101855 -0.258802 
0 88 -0.0674167 -0.0898526 0.0347287 -0.173471 0.19081 -0.118804 -0.371207 -0.114948 0.0332725 -0.0559839 -0.0420847 -0.191692 -0.107354 0.121386 -0.179965 -0.0297691 -0.0527385 -0.0124471 -0.0956161 0.0625816 -0.121851 -0.00460417 0.168887 -0.00737773 0.0319949 -0.105972 0.0440471 0.0943291 -0.0581422 0.110051 -0.0657778 0.091362 -0.0453456 0.0394181 -0.102392 0.0240609 0.0592299 0.0649494 0.0115002 -0.0057268 -0.272306 -0.0910978 -0.0564674 -0.126969 0.000722849 -0.0930698 0.0273043 0.00270857 -0.2063 0.0842914 0.0491747 -0.061415 
0 89 0.292023 0.0650834 -0.0772611 -0.00777456 0.0506021 0.115841 0.0388742 0.123013 -0.0411758 0.204985 0.0384809 -0.0810895 0.164849 -0.102329 0.196477 0.343127 0.037654 0.0555344 0.141075 -0.0469283 0.253704 -0.113481 0.051715 -0.0324464 0.100491 -0.0189219 0.255292 -0.14819 0.0798837 -0.0371502 -0.0902662 0.132247 0.0894399 0.271931 0.0939554 0.167419 -0.255427 -0.0655691 -0.00118714 -0.208121 0.0844271 0.321364 0.038537 0.00380304 0.0861499 -0.0828264 -0.0228166 0.156675 -0.0244867 -0.114524 0.0663972 0.0842862 
0 90 0.1466 0.0206388 1.78345e-05 0.103351 0.202544 0.088915 0.0269208 0.331621 0.320994 -0.04111 -0.114171 0.032233 0.02734 -0.100505 0.0269579 -0.142322 0.0656649 -0.0955983 -0.0952178 0.133678 0.100305 0.0425204 -0.0501827 0.145105 -0.0242281 -0.0487342 0.159958 -0.0491447 -0.0162435 0.0648989 0.175327 0.0203785 -0.170917 -0.050753 0.0865837 0.000224134 0.00583463 -0.0805963 0.0592184 0.181386 -0.113217 -0.0820295 -0.084896 0.203115 -0.071063 0.233779 -0.135569 0.10124 -0.0470534 -0.140072 -0.145303 -0.0921832 
0 91 -0.121308 -0.0922647 -0.121113 -0.222713 -0.0797318 0.0509496 0.169383 -0.376937 -0.110758 -0.113166 -0.153481 -0.11504 -0.103599 -0.0842258 -0.0730731 -0.123328 -0.0900236 -0.299057 0.149715 0.0606738 -0.0605449 -0.127104 -0.120469 -0.26211 0.0166732 -0.0908162 0.317432 -0.45754 -0.166796 -0.0201733 0.27548 -0.47369 0.119839 -0.021267 0.0896039 -0.0172699 0.0629634 0.0781217 0.172376 0.00802807 -0.236601 -0.0484051 0.207906 0.205801 -0.083291 -0.0639595 -0.106448 0.07973 -0.108682 -0.0516198 0.0317004 0.0645242 
0 92 0.125402 0.133359 0.109329 0.142005 0.00201556 0.0734508 0.0293965 0.156227 -0.0511734 -0.125288 -0.0351229 -0.130361 -0.0505813 0.0139375 0.108291 -0.0234598 -0.277197 -0.265354 0.102329 0.00892072 -0.220527 -0.229801 0.0150469 -0.0950614 0.0996999 0.192545 -0.0424617 -0.21201 0.132365 -0.0553909 -0.074242 -0.158638 -0.0176409 0.0484568 -0.0179613 -0.255932 0.104937 -0.182337 0.0279325 -0.124229 0.0891991 -0.107587 -0.015032 -0.0730042 0.207993 0.167372 -0.244241 0.139089 0.0533194 -0.160789 -0.0106754 -0.0398596 
0 93 -0.0778468 0.171425 0.0655038 -0.00173284 0.0138881 -0.101783 -0.0770224 0.101006 0.225803 -0.0279532 0.0777508 0.292667 -0.136586 0.128289 0.0319633 0.405857 0.0371402 -0.0851859 0.287058 0.15473 -0.0339813 0.0129257 0.159388 -0.0474528 0.129703 0.146889 -0.156276 0.327782 -0.0864186 -0.0478949 -0.0533087 -0.121166 -0.0757741 0.0231321 0.0285279 0.0680445 0.0966959 0.0755837 -0.147064 -0.0492404 0.114387 0.0727654 0.177853 0.0768814 0.105683 0.00234613 0.0545453 -0.0490832 -0.041562 0.100283 0.0820285 0.071241 
0 94 -0.24522 -0.108902 -0.0418768 0.145356 -0.0758899 0.251321 -0.126482 0.104542 0.08026 -0.0159376 -0.0124906 -0.101071 0.185474 0.21453 -0.304059 0.179571 -0.281571 0.104636 0.135299 -0.2017 -0.150331 0.195466 -0.137655 -0.0736973 -0.0675577 -0.0290016 -0.16044 -0.121322 0.175773 -0.00482242 0.106159 -0.312438 0.091811 0.0924454 -0.0774398 -0.234922 0.0972445 0.0646287 0.0560711 0.117748 -0.427838 0.237549 0.101452 0.0339137 -0.330359 0.0376281 -0.104115 0.021766 -0.0150857 -0.0572355 -0.120471 -0.0083163 
0 95 -0.065392 0.0204775 -0.152036 0.0047013 -0.0368193 0.0428043 -0.108536 -0.109199 0.0201078 -0.141415 0.255299 -0.145632 0.0813917 0.116585 -0.0404456 0.0415964 0.0375664 0.0969415 -0.0599072 0.128131 -0.0532532 -0.0557432 -0.192548 0.0132445 0.116251 -0.165091 0.0498456 0.0378839 -0.00476161 -0.166674 -0.155358 -0.1123 -0.0455761 -0.0389356 0.0215307 0.000710363 -0.0496675 -0.0571868 -0.145376 0.241067 0.180721 0.0655068 -2.03929e-05 0.126697 0.194576 0.0350863 0.0498671 0.0680195 0.158496 -0.132105 -0.0540423 0.0488662 
0 96 0.091604 -0.0566318 -0.0189752 -0.12333 0.00590821 -0.0853332 0.0289524 0.0590457 -0.0676931 -0.0615914 0.112966 -0.0115651 0.130952 -6.95542e-05 0.0710557 0.0740054 -0.0668138 0.0833802 0.0592148 0.0237927 0.0914211 0.0105337 0.0603191 0.0477214 0.0351338 -0.0173288 -0.0231025 -0.0528907 -0.0716056 0.0182963 -0.0859366 0.190865 -0.00347281 0.115152 0.121204 -0.0917233 -0.0705684 -0.0612642 0.00175731 -0.0291951 0.0572107 0.069741 0.0519635 -0.127032 -0.194466 -0.0130321 0.0413838 0.0300248 -0.0295598 0.0499678 -0.00640357 0.0687241 
0 97 -0.0854832 0.0531434 -0.12145 -0.0894005 -0.0191923 -0.0209678 -0.168956 0.0902412 0.0712129 0.0324506 0.0824975 -0.00824118 -0.207485 0.00902302 0.0186843 0.0490476 -0.110943 0.120182 -0.081029 -0.200953 0.116308 -0.215414 -0.00679829 -0.0581659 -0.0935007 0.0522933 -0.0550337 0.136376 -0.0803197 -0.0332106 -0.0598623 0.110937 -0.162835 -0.107411 -0.0223392 0.0282487 -0.161382 0.0283613 0.0373209 -0.0961626 -0.23869 0.0656826 0.0768365 -0.312003 0.0314087 -0.0568643 0.00407241 -0.253365 0.171657 0.0717292 -0.00624441 -0.081177 
0 98 0.083118 0.217449 0.137463 0.0845945 0.0023028 0.0486341 -0.0712906 -0.0275738 0.0176689 0.0311977 -0.00853302 -0.00883341 -0.000371463 -0.00885447 0.156274 -0.0573503 0.0658852 0.0390962 -0.0410526 -0.0486121 -0.105454 -0.203461 0.188961 0.0705557 -0.0170857 -0.05661 -0.0210279 0.133117 0.0509411 -0.0341021 -0.00403462 -0.1303 -0.0142947 -0.0457746 -0.00782258 0.0203046 -0.109176 0.100999 -0.0501724 0.00585717 -0.185281 -0.0343706 0.00723626 -0.0955023 0.0255458 -0.235483 -0.187781 -0.148135 0.00751722 0.128992 0.0206218 0.0189035 
0 99 0.174314 0.157704 -0.0674651 -0.0710514 -0.0718135 -0.135832 0.00318417 -0.178526 0.011031 -0.057334 -0.147964 -0.230524 -0.0876206 0.284781 -0.053942 0.293341 -0.334906 -0.108516 0.0907109 -0.354929 0.0515415 -0.289885 0.00229642 -0.0824666 0.0784433 -0.045337 -0.0702957 0.0597758 -0.348474 -0.0311106 -0.154074 0.146741 -0.0322069 0.0211718 -0.119156 0.106616 0.146824 0.0641799 0.0946114 -0.0682611 0.0587325 -0.233369 0.0512871 -0.0532537 -0.0609504 0.0159477 -0.213448 -0.0314307 -0.137192 0.084201 -0.080734 0.0693911 
0 100 0.00889186 0.228215 -0.0344906 0.0546529 0.177422 -0.0243419 0.183946 0.01627 -0.0769138 -0.0105916 0.0694717 0.105472 -0.105046 0.042439 -0.125185 -0.0827963 -0.00446967 -0.0339232 0.0800151 0.0829857 0.198875 -0.122812 0.207161 -0.0979924 0.0578479 -0.0212759 0.113627 0.0182376 -0.0128322 -0.0374094 0.286854 0.0562208 -0.0312967 -0.0367228 -0.0724608 0.212705 0.191272 -0.0126429 0.102255 0.211437 -0.0540971 0.120523 -0.0960129 -0.0722306 -0.0855367 0.0138393 -0.0119835 -0.0235491 0.0688455 0.049316 0.135434 -0.0494468 
0 101 0.034954 -0.0766309 0.143351 -0.0319297 0.11504 -0.0202985 0.028838 -0.0120451 -0.0763537 0.135834 0.0196727 0.120044 0.102699 -0.0633836 0.030846 -0.12773 0.00331673 0.0807942 -0.0562072 0.0648815 -0.0764439 -0.0802951 -0.0683338 -0.0324843 0.143642 -0.129319 -0.103737 -0.0728543 0.0101661 -0.107147 -0.162086 0.0292521 -0.158077 -0.0602078 0.125529 -0.0714387 -0.0274539 0.194367 0.0700675 -0.0216638 -0.0139101 0.0884422 0.0266042 0.0462313 0.0961126 0.0119895 -0.0658866 -0.178532 -0.0617054 -0.0960996 0.0698631 -0.000497598 
0 102 0.11909 -0.0464053 0.295308 0.669875 0.0226074 0.206974 0.0717302 -0.0403492 0.390966 0.0470471 -0.459932 0.0992081 0.331086 -0.157532 0.151721 0.170545 0.145391 -0.180373 0.183028 -0.0225247 0.0405589 0.246623 0.0130943 0.057048 0.149382 0.265192 0.478501 0.0477638 -0.141845 -0.108256 -0.0486095 -0.354259 0.36497 0.516568 -0.0508299 0.224292 -0.0465437 -0.136205 0.379768 -0.10831 -0.0162337 0.268925 0.0554386 0.344593 -0.107603 -0.0483467 -0.164731 0.294319 0.115067 0.0478816 0.116792 0.0694267 
0 103 0.0849881 -0.0125801 -0.0622081 0.158399 -0.193286 -0.097717 0.121552 0.112536 -0.0309888 0.0641156 -0.0177996 0.151526 0.131486 0.10969 0.0693301 -0.169314 -0.0473943 0.0214762 0.000180528 -0.126848 -0.0115927 0.254864 -0.102365 0.0289349 0.159273 0.0678822 0.210935 0.0684802 0.114137 -0.0632575 -0.0858998 -0.153582 -0.0512528 0.00554494 0.243178 0.0817268 0.00999013 -0.0976022 0.0817954 0.0149479 0.0026402 0.0080679 0.0313545 0.140441 0.0539667 0.0431805 0.0654321 0.0179521 0.160055 -0.134141 0.0406924 -0.23195 
0 104 -0.0753681 -0.00169696 0.0394633 -0.131217 0.0690062 0.0248284 -0.141853 0.202728 -0.0394304 0.153033 0.0978856 -0.0692376 0.110624 -0.0584139 0.0216675 -0.151928 0.0968713 0.0862957 0.200833 0.0605832 -0.121823 0.0812102 0.108556 -0.0454143 -0.0111382 0.0318586 -0.143311 0.11183 -0.18827 0.0652104 -0.045642 -0.0964538 -0.0349336 -0.10555 0.0857247 0.180795 0.125341 -0.0248925 0.102043 0.263427 0.102745 -0.15141 0.0634959 -0.0596772 0.0994715 -0.0221974 -0.17275 -0.00275419 0.0932212 -0.0551411 0.0438177 -0.163928 
0 105 -0.0520229 0.0542267 0.0493592 0.0713432 -0.0919371 0.0196447 -0.0136673 -0.0846448 0.036005 0.0796119 -0.0527003 0.049273 -0.0833235 -0.152599 -0.065436 0.0716873 -0.0688328 -0.0684894 0.00542418 -0.0334641 0.00386012 -0.00836956 -0.0885946 -0.143995 -0.0582676 -0.0445467 0.149285 -0.0311901 0.174556 0.251435 0.00347629 -0.160203 0.107952 0.0168811 0.0830021 -0.141534 -0.10155 0.011642 0.0862963 -0.0775917 0.0298958 -0.117515 -0.00781609 0.110669 0.0771336 -0.013683 0.0018331 0.123251 0.136721 0.125121 -0.0255931 0.0441323 
0 106 0.241318 -0.0369643 -0.0522928 0.143848 -0.0843881 -0.00158849 0.00731242 0.05104 -0.0779619 -0.0531667 0.178372 -0.0564434 -0.052515 0.329036 0.353795 0.570514 -0.110298 0.0850589 0.0910717 -0.154443 0.054402 -0.000932177 0.0634407 -0.104246 -0.111197 0.00842492 -0.0841634 -0.0861996 0.16419 -0.11716 -0.00887134 0.17775 0.0428323 0.0835173 0.154104 -0.0319997 0.0431471 0.0829143 0.0669712 -0.0541973 -0.0150109 0.0200643 -0.13979 0.117746 0.259331 0.0327434 0.310795 -0.0259537 0.130736 0.00961557 0.138135 0.197836 
0 107 -0.00315733 0.207357 -0.348726 -0.016353 -0.0710238 -0.0728862 -0.152801 -0.137602 0.0361112 -0.193019 0.0110874 -0.232367 -0.0806265 0.309116 -0.0473601 -0.450488 0.221984 -0.0488711 -0.278565 -0.0850426 -0.0639456 -0.604751 -0.270745 0.17659 -0.122542 0.0101207 -0.0131904 -0.113893 -0.118534 -0.239067 -0.0971638 0.1491 -0.066291 0.300935 -0.355807 -0.118977 0.0482403 -0.0447346 0.265791 0.0283194 0.103376 -0.123753 0.188467 0.100978 -0.52901 -0.084702 -0.0743284 -0.151929 -0.00261815 0.0275464 0.000217624 -0.00767716 
0 108 -0.130662 0.116202 -0.0931308 0.0779494 0.042284 0.105308 0.0614097 0.378109 -0.202712 0.0491839 -0.134969 0.00643133 0.0586528 0.12949 0.186575 -0.000542245 0.0443122 0.123044 -0.0272375 0.224574 -0.126684 0.129172 -0.106857 -0.143181 0.0129163 0.168328 0.0766952 0.0949935 -0.1288 0.0313073 0.173058 -0.130394 -0.150542 -0.0726832 -0.047236 -0.0209796 -0.00830854 0.159163 -0.0194606 -0.0322102 0.0030336 0.089081 0.1089 -0.119536 0.0802937 0.0662612 0.0307605 -0.00577557 -0.0237062 -0.015716 -0.0126028 0.110034 
0 109 -0.0366977 0.00641556 -0.0962405 0.0608194 0.0486146 0.128338 -0.0680841 -0.0996229 0.0579303 0.0991798 0.200592 0.0793847 0.113204 -0.13447 0.00620341 -0.0732128 -0.0188748 -0.0912495 0.0279947 -0.134304 0.173246 0.0291128 0.0110122 -0.0211858 0.0946769 -0.0197593 -0.0452782 -0.155437 -0.00679191 0.00463181 -0.252944 0.128818 0.000831861 0.0297512 -0.0809768 -0.0940247 0.0752267 0.0240729 -0.0798595 -0.0526439 -0.0372706 -0.0146273 -0.139626 0.0633315 0.0817496 -0.0934763 -0.0509329 0.111414 -0.00850048 -0.281996 -0.12477 -0.0956473 
0 110 0.204005 0.0662573 -0.00201813 0.0546195 0.0395916 -0.0451699 -0.150137 0.16434 0.240892 0.223472 -0.217184 0.00538941 -0.14977 0.233383 -0.145023 0.0221633 0.142573 0.103576 -0.0959014 0.140589 -0.0202468 0.0144143 0.181138 -0.00442586 0.0499787 0.00422692 -0.0117505 -0.0874491 0.123469 0.0186774 0.0937721 -0.0357852 -0.0581002 0.0716017 0.0323657 -0.243604 -0.0528309 -0.272734 -0.185547 -0.0491988 0.187801 0.137898 -0.0479046 0.136968 0.153622 0.169823 0.106298 -0.0570674 0.0844894 0.0653643 0.139865 0.0626347 
0 111 0.141877 0.0652633 0.132984 -0.0220644 0.0937072 0.10268 -0.138157 0.0261638 -0.118677 0.26419 0.140723 -0.00845673 0.201947 0.29963 0.015911 0.180815 -0.20801 0.0305715 0.0158554 0.128969 0.120324 -0.120023 0.360178 -0.134745 -0.0311869 0.10965 -0.0559388 0.133208 0.111182 0.000938011 -0.0698979 0.0688011 -0.100441 0.0780387 -0.129464 0.0637796 -0.180903 0.188995 0.0308298 -0.116057 0.265663 -0.0152287 0.0378881 -0.0113319 0.153673 0.095766 0.377154 -0.118606 0.130707 -0.0416958 -0.0354942 0.417742 
0 112 -0.19265 -0.0124665 0.120737 0.0104939 0.0154128 -0.192226 -0.177419 -0.178738 -0.00665946 -0.125283 -0.0351699 -0.0294978 -0.0789835 -0.116624 0.034017 -0.0935587 0.0601264 -0.00744017 -0.00238562 -0.147346 0.120853 0.180022 -0.0919529 0.0990847 -0.0657908 -0.113457 0.114197 0.00675054 0.0439191 0.0404091 -0.106596 0.0355128 0.05813 0.0285329 0.0996095 -0.0538157 0.0470901 0.101069 0.0173555 -0.0755338 0.0622578 -0.0370589 0.0931449 -0.0113431 -0.0355254 -0.0298819 0.113895 -0.0418599 0.212145 -0.118855 -0.135287 -0.0627581 
0 113 0.179995 0.0250575 -0.0635633 -0.00329326 0.145544 -0.0257689 0.106667 0.00292662 0.148536 -0.00370949 -0.0634774 0.100027 -0.0510116 -0.0629652 0.0402791 -0.111677 -0.144721 0.123918 0.175461 -0.0325481 0.100334 -0.127792 0.0346371 -0.0960776 0.0271162 0.241682 -0.0113725 -0.0409976 -0.0846387 -0.00923391 0.040947 0.095169 -0.00763195 0.135678 0.0900604 0.120296 -0.205724 -0.0412572 0.00165071 0.138519 0.0477906 0.0846259 -0.00782472 -0.0542139 0.029318 0.0573983 0.0663488 0.0107817 0.0142778 0.0483933 0.111856 0.134638 
0 114 -0.146748 0.0181178 0.0919491 0.0571503 0.0315332 -0.0567851 0.191398 -0.0947387 0.203966 0.0557488 -0.119562 -0.235821 0.122217 0.0162716 0.0419548 0.280915 0.266391 -0.00124095 -0.0393749 0.0116259 -0.0125106 0.0203386 -0.0866876 0.0549674 0.00487144 -0.145088 -0.0781792 0.0579724 0.00653514 0.113234 -0.149771 -0.0728615 0.0621422 -0.0434828 -0.0271982 -0.050034 -0.0414635 -0.0221292 -0.0225335 -0.068778 -0.173663 -0.22181 -0.0535766 -0.134873 -0.0347524 -0.0736039 -0.0263885 -0.0388308 0.0444768 0.0642817 0.027365 -0.12248 
0 115 0.0454527 -0.0811096 0.104365 -0.076576 -0.229126 -0.0478234 0.0898409 -0.102682 0.16778 -0.0756113 0.15677 0.0847358 0.161113 0.0643234 0.0736692 0.0554867 -0.164825 -0.0368241 0.0843573 -0.0797548 0.241738 -0.0571182 -0.102978 -0.109617 0.0905552 0.0916464 -0.0179019 0.0374803 0.134411 -0.0360663 -0.0143145 0.125596 0.0598933 -0.110096 -0.151096 -0.119767 -0.0147164 0.0225348 -0.0299959 -0.144713 0.0518284 -0.136683 -0.00615579 -0.0587472 0.154569 -0.157835 -0.0829941 -0.0268446 -0.0981775 0.0852685 -0.052111 0.0678976 
0 116 0.0583701 0.0456601 -0.56765 0.0798991 -0.20092 -0.184937 -0.206566 -0.208442 0.0608851 0.0812539 0.0310313 0.226179 -0.191308 -0.104153 -0.04075 -0.198418 0.11738 -0.04606 -0.149791 -0.112426 -0.237238 0.114152 -0.35245 0.206795 -0.0552424 -0.0851371 0.0731943 -0.0201252 -0.341295 0.135543 -0.505521 0.0786913 0.127431 0.00622764 -0.162902 -0.0601226 -0.0877792 -0.221977 -0.0461151 0.0148661 -0.0447675 -0.0615853 -0.00178409 -0.109501 -0.0137752 0.115269 -0.0552259 0.00712002 -0.0465977 -0.0728783 -0.0242729 -0.171314 
0 117 0.200319 -0.027315 -0.0396846 -0.0581222 0.0472033 0.138401 -0.0763919 0.0396503 0.206584 -0.0608492 0.126099 0.0718202 -0.109416 0.0216922 0.0133646 -0.0465592 0.289145 0.0495627 -0.0350989 0.0795291 -0.10629 -0.112077 0.0702753 -0.163328 -0.0981815 0.144662 0.0866176 -0.157773 -0.0566692 -0.0226212 0.0636259 0.277751 -0.0449622 -0.171208 0.0900298 0.0244969 0.0347086 0.0385779 -0.0134739 -0.094659 -0.199607 0.207603 0.0817351 0.0821555 -0.0802933 0.191517 -0.0128966 0.182448 0.0966814 0.0379102 0.0830495 0.118227 
0 118 -0.0879606 -0.082021 -0.0970971 0.111165 0.073445 0.131358 -0.0912681 0.122521 -0.139262 -0.0363638 -0.158826 0.150273 0.103942 -0.0587443 0.00738818 -0.118318 -0.0292996 0.0417239 0.0283212 0.0808001 0.0332326 -0.00274621 0.108044 -0.217161 0.180153 -0.0408683 0.117213 0.0553801 -0.0565856 0.107991 -0.123269 0.0306396 0.0516943 0.271666 -0.0323584 -0.125305 -0.105849 -0.0806461 -0.137531 0.0275405 -0.0899162 0.0223481 0.226264 0.0509366 0.0653067 -0.101441 -0.234185 -0.161187 -0.0347903 0.114402 -0.0086357 -0.0199688 
0 119 -0.0593201 0.259994 0.01088 0.153622 -0.0645028 0.0560596 0.0440808 -0.0379922 -0.0694106 0.0562935 -0.0689505 0.122519 0.206987 0.247103 -0.0376818 -0.0566332 -0.0409183 0.0266456 0.0205335 0.0723662 0.134405 -0.0271836 0.18791 -0.0410443 0.0596304 -0.015349 -0.0992825 -0.0161188 -0.0633519 -0.166181 -0.0383123 0.0373238 0.039204 -0.0238036 0.0299888 -0.0238807 -0.0823203 0.0184342 -0.128408 -0.0399089 -0.0171513 0.11296 -0.0289459 -0.144611 0.223381 -0.0295185 -0.00543945 -0.00405833 0.144955 0.00536937 0.181969 -0.154427 
0 120 0.000290925 0.0467339 -0.0683655 0.17129 0.145521 0.0151379 0.132492 -0.0961798 0.0516279 -0.144246 -0.0461368 -0.0976831 -0.163806 0.0832133 -0.152384 -0.0495812 0.0415112 -0.0691842 0.0580514 -0.0735948 -0.0029268 0.00463111 -0.0134836 0.092422 -0.0687411 -0.0329204 -0.0173952 0.0687912 0.141363 0.0376898 0.0927556 0.179469 -0.0373529 0.0232216 0.0195808 0.0481376 -0.00865347 -0.0440231 0.150358 -0.184703 -0.0806512 -0.21486 0.00832953 -0.0786712 -0.102419 0.107259 -0.020843 -0.0304626 0.147064 -0.101525 0.105797 -0.0329171 
0 121 -0.0567042 -0.0995804 -0.11997 -0.050208 0.0120668 0.141774 -0.16368 -0.0289484 -0.100934 -0.176339 0.0414613 0.135479 0.025643 -0.107108 -0.111266 0.0874262 -0.0427287 -0.0679507 -0.0916755 -0.0624894 -0.0743515 0.0301813 -0.0173533 0.00763946 0.0755267 0.171988 0.0830118 0.0834965 0.118448 0.0770478 -0.0440088 -0.023942 0.00503929 0.0632345 -0.126939 -0.135072 0.0423716 0.0957292 0.0120841 -0.1138 0.0315336 -0.0750113 -0.164875 0.0927533 0.0389732 -0.116723 -0.0481661 0.0899135 0.141066 0.234717 -0.0320833 -0.0257774 
0 122 0.0179669 -0.0179354 -0.0658223 -9.89383e-05 0.000751607 -0.0545517 0.016509 0.145075 -0.120907 -0.252348 -0.184098 0.060368 0.128909 -0.00046622 -0.0584294 -0.0823033 0.034495 0.00330636 -0.0528035 -0.0109557 0.0864329 -0.0655083 -0.0893281 0.0927144 -0.0629443 0.055667 0.137994 0.0213317 0.103488 -0.140197 0.123572 -0.00571906 0.0303904 0.0696501 0.0580547 -0.113027 -0.00590945 -0.0887624 0.040281 0.226688 0.024629 -0.0791376 0.015964 -0.107881 -0.081709 -0.18115 0.092462 0.0443967 0.0893566 0.0171032 -0.0906719 0.0854878 
0 123 0.0261555 -0.0870214 0.00021886 -0.0612854 -0.0990189 0.143618 -0.125153 0.00915378 0.0848031 -0.0906488 -0.0683629 -0.0239785 -0.0610651 -0.116924 -0.17348 0.0443291 -0.187143 0.0241448 0.0788364 -0.0526254 -0.181092 -0.10028 -0.0397935 0.0333825 0.0583732 0.0753985 -0.0572418 -0.000238601 -0.0890854 -0.0846223 -0.12974 -0.104627 0.129433 0.206916 -0.149056 0.0110201 0.175289 -0.00449212 0.0441585 0.144654 -0.137452 0.0316028 -0.0288724 0.0835205 0.181547 -0.16676 0.195705 0.0487919 0.0527754 0.00386447 0.132109 -0.146365 
0 124 0.0176124 0.00922525 0.119991 0.152458 0.257852 -0.0591173 -0.100717 0.125616 0.174223 0.0986523 0.185081 0.0902011 -0.121486 0.109494 0.102776 0.144729 0.0841761 0.224001 0.172774 0.0574785 -0.00821082 0.136795 0.0867844 -0.10667 -0.0817553 -0.0730257 -0.0481731 0.0763363 0.156885 -0.0516492 -0.0828023 0.127572 -0.0897896 0.049719 -0.138495 -0.066347 0.0237852 -0.0113741 -0.00182125 -0.14086 -0.0484061 0.32991 -0.00923627 0.150089 -0.113471 0.0706589 0.039332 0.0493753 -0.155794 -0.11739 0.188563 -0.0726541 
0 125 -0.047633 0.0257011 -0.0566338 0.166127 -0.0219828 0.0252992 0.0763418 0.0214736 -0.00939802 -0.0454023 -0.121297 0.226525 0.0430012 -0.065235 -0.159142 -0.0480692 0.0900051 0.022485 -0.00135512 0.15566 0.163006 0.0590671 0.0146309 0.147338 0.0288914 0.0921076 0.0675127 -0.109431 -0.00109825 -0.0159343 -0.00247506 0.120244 0.060101 0.183589 0.033087 -0.148541 0.027229 -0.0623335 0.117598 -0.00543191 -0.142632 -0.0584073 -0.13537 0.0915551 0.132543 -0.125831 0.228749 -0.133781 -0.158937 -0.139532 -0.0639267 0.0319442 
0 126 0.0628118 0.122751 -0.0279231 0.0128327 0.0906853 -0.0872022 0.284656 -0.154759 -0.11097 0.0666551 -0.0625564 0.0469312 0.000526942 -0.0173876 0.239677 0.0880289 0.0461833 -0.185256 -0.0171248 0.145609 -0.0322191 0.0519179 -0.10792 0.067823 -0.276231 0.110588 -0.00700529 0.167241 0.131158 0.00102125 -0.0903845 0.0446318 0.135284 0.000973649 -0.102992 -0.000531572 -0.184767 0.0446925 -0.209719 -0.0986417 0.0774351 0.142522 0.140183 0.040838 0.0141807 -0.21694 -0.0550897 0.0887543 -0.0232543 -0.153745 -0.205195 0.0451818 
0 127 0.0684631 -0.0298954 0.0847241 0.133034 -0.0199025 0.0101306 -0.0107957 0.132603 0.0824821 0.0654022 -0.16179 0.0920165 0.156569 -0.0992271 0.0173573 0.255179 0.00207265 0.0150379 -0.166965 -0.208341 0.264602 -0.0417346 -0.00722658 -0.013535 -0.10917 -0.164811 0.072485 0.00979785 -0.118031 0.0776882 0.13443 -0.0875767 0.0622992 -0.124583 -0.0529556 0.0297474 -0.0489993 0.118987 0.166645 -0.0831537 -0.0112922 0.504918 -0.0877279 0.406515 0.0600202 0.25974 0.131922 0.0192476 -0.120471 0.025456 0.09201 0.00959142 
0 128 -0.393573 -0.0144503 0.112208 -0.00302303 0.0739673 0.0714623 0.0173978 0.0319796 -0.120091 -0.0885598 0.161845 -0.146233 0.049224 -0.0495383 -0.0795604 -0.0407575 -0.151447 0.0553476 0.101909 0.0370117 -0.0200107 0.120683 0.102196 0.0606447 -0.0692234 -0.0514649 0.196559 -0.067368 -0.0151772 0.0347744 -0.016375 0.135693 -0.0613346 0.0127482 -0.0554835 -0.136351 -0.0825436 -0.148949 0.0186529 -0.00803835 0.0870229 -0.121455 -0.0619045 0.151455 -0.0380733 -0.229876 0.079363 -0.0484079 0.0025658 -0.0854127 0.124994 -0.0441105 
0 129 -0.028937 -0.0560528 0.100925 0.0627767 0.161866 0.130921 0.103637 -0.0807011 -0.163534 0.0268827 0.245851 -0.054451 0.0533157 0.0888093 0.173693 -0.00389991 -0.0127369 -0.168555 -0.272078 0.049555 -0.0178882 -0.0372353 -0.202178 -0.0803514 0.0642549 -0.00816062 0.0349147 0.157499 0.0474673 0.155841 0.102118 0.0697197 0.0583719 0.0276575 -0.15365 -0.176861 0.0355493 0.0928983 -0.14175 0.075835 0.0274186 0.265854 -0.00760799 -0.0334753 -0.114015 -0.00359802 -0.104741 -0.062031 -0.0150124 -0.0398833 -0.0508661 0.0701127 
0 130 -0.0152359 -0.0825182 -0.174599 -0.0109143 0.0489862 0.160633 0.0694683 -0.04421 -0.00930998 -0.197952 0.0872744 -0.0344218 0.0377751 -0.00695606 0.0760365 -0.142089 0.0227594 -0.114612 -0.039372 0.199703 0.0927127 0.00628792 -0.0593997 -0.0729313 -0.0288632 0.00678177 -0.00918157 0.103608 0.0994979 -0.0886506 0.108061 -0.00083065 -0.129439 -0.0163527 0.0689056 -0.0538887 -0.146865 -0.00859756 -0.0152016 0.178792 -0.141709 0.0364446 -0.0970973 -0.0646998 -0.219816 -0.0232343 0.068712 -0.0319791 -0.0246799 0.0352975 -0.116385 -0.114375 
0 131 -0.0279758 -0.0541291 0.187066 0.0805365 0.0779051 -0.0905572 -0.204076 0.122974 0.305621 -0.0404505 0.272727 -0.170272 0.0763031 -0.0270684 0.495479 0.157325 0.274565 -0.0166983 0.0634052 0.127088 -0.0859258 0.335083 -0.181025 0.131021 0.159206 0.0467381 -0.179076 -0.135073 0.314106 0.0691579 0.196367 -0.29369 0.0144808 0.0896169 -0.162185 0.373055 0.0121586 0.249053 0.0939711 -0.0018919 0.128746 0.193846 0.174955 0.142934 -0.0202197 -0.00791589 0.0421388 0.145354 0.0767318 0.0275181 0.25455 -0.107165 
0 132 -0.0036112 0.00342118 0.0324864 0.249875 -0.0354664 0.0757788 -0.0218221 0.0492143 0.143138 0.16959 0.0745981 -0.0987993 0.0734908 0.169665 -0.0150674 -0.0732183 0.169187 0.0790841 -0.102241 0.132514 0.180975 -0.0456876 0.0453304 0.0848979 -0.203231 -0.0566328 0.0548039 -0.0670903 0.0423736 0.0727355 0.0695295 0.0948429 0.0446815 -0.00494382 -0.0371975 -0.0767289 0.127077 -0.148174 -0.0836695 -0.0580982 0.0758368 -0.0601279 0.0880173 -0.0602489 0.0400105 -0.0970825 -0.0100502 0.0756179 0.162383 -0.0394132 -0.120962 0.137946 
0 133 0.0305752 -0.128212 0.0932391 -0.0272659 0.0183498 0.150205 0.13422 0.123677 0.0708132 0.0210134 0.0379191 0.22239 0.160519 -0.0714325 -0.15369 -0.0298711 -0.119669 -0.0804341 0.19317 -0.0426715 0.0526823 -0.066264 0.179164 0.0614973 -0.0555403 0.193941 0.0337408 -0.120876 0.231179 -0.131742 -0.0801266 -0.0549238 0.0784138 -0.183043 -0.129213 -0.0951037 0.083043 -0.0284712 -0.0377219 0.0987485 -0.160909 -0.0215407 -0.0221191 0.0124687 -0.0497723 -0.00308797 0.0287649 -0.00580589 -0.0131128 -0.0679085 -0.133175 0.0011456 
0 134 0.0433805 0.31772 -0.106188 0.216829 -0.015919 0.0884189 -0.0668888 0.229448 0.100644 -0.111028 -0.11957 0.24891 0.0293201 -0.169383 0.171381 0.114153 0.268344 -0.0230199 -0.0137044 -0.0713583 0.263805 0.239172 -0.0208121 0.134544 0.0166924 -0.0105067 0.0333191 -0.0130194 0.124631 -0.0575239 -0.158993 0.191839 -0.113023 0.0396454 0.0777501 -0.0290923 0.180133 0.0124997 -0.131755 -0.116992 0.221506 0.0284695 0.23335 -0.0118324 -0.004772 0.0421575 0.0624011 -0.023713 -0.0484705 0.104009 0.0498978 -0.0225155 
0 135 -0.00349739 0.0926712 0.202261 0.06695 -0.0296095 -0.00509659 0.0324377 -0.0819264 0.000709307 0.302283 -0.00255848 0.201436 -0.0968663 0.022327 0.187957 0.0231003 -0.100516 -0.0918533 0.022676 -0.0986706 -0.143383 0.0272969 -0.0660128 0.211229 0.157342 0.239306 0.143137 -0.0682271 -0.00307989 -0.130745 -0.0430151 -0.185271 -0.00391879 -0.011889 0.076661 -0.0109692 -0.00461266 0.149782 0.0184457 -0.00820984 0.0386714 -0.0243979 -0.0545068 0.0393694 0.0676215 0.215566 0.00264241 -0.0940498 -0.0964098 0.00249199 -0.280706 -0.0626465 
0 136 -0.0867287 -0.0343569 -0.0601252 -0.0532802 -0.00310097 -0.0981913 0.0601492 0.00522839 -0.117049 0.0919542 0.159717 -0.178693 -0.0120838 0.0329577 -0.0774627 -0.102958 -0.0937769 0.108374 -0.00902518 -0.0240197 -0.21536 0.100602 -0.220588 -0.202607 -0.0239078 -0.0827882 -0.189392 0.0878117 0.0927248 -0.186431 -0.141728 0.0909909 0.0689393 0.0591238 -0.00757483 -0.0835102 0.170785 0.0604158 -0.0348031 -0.0528006 0.0295356 -0.211537 0.0215334 0.0733487 0.0247515 0.00587001 0.0198788 -0.0652867 0.0484272 -0.0476068 0.0656874 0.00437391 
0 137 -0.112641 -0.0454063 -0.00517377 0.181525 0.0885412 0.107017 0.0218312 -0.0701656 0.182558 -0.114126 0.102684 -0.0258075 0.186633 0.0355154 -0.0178387 -0.070274 0.011107 0.0306086 0.187504 0.00596242 0.08608 -0.0368375 -0.0836162 -0.0720464 0.0426839 0.113983 0.0018516 0.0827694 -0.0194507 -0.152252 0.0238856 0.0456765 -0.139075 0.0949144 0.219146 0.0756557 -0.085469 0.105917 0.114029 -0.00579125 -0.100402 -0.0225846 -0.0906256 -0.0441274 0.0913374 0.0371741 0.0576632 -0.0812014 0.0424031 -0.0182566 0.000381381 0.141514 
0 138 -0.110831 -0.0403039 -0.141773 -0.148405 0.0140725 -0.137328 0.0929901 -0.0249262 -0.101281 0.0726205 -0.195739 0.125526 -0.153318 0.0464578 0.0845833 0.0690311 -0.104714 -0.095375 -0.0186999 0.0486323 0.0938653 0.0396929 -0.194955 -0.0713489 0.121411 0.0061409 -0.133961 0.0446328 0.0186506 -0.0959155 -0.115149 0.0466983 -0.153628 0.113441 -0.152945 0.151458 -0.116704 0.0510597 0.0442179 -0.0320992 -0.0599938 -0.0374049 -0.00210318 -0.0562256 0.0644529 -0.0433663 0.168754 0.084678 0.0179152 -0.0377919 -0.0734795 -0.166213 
0 139 0.0446464 -0.109019 -0.170299 -0.0230912 0.167139 0.00939288 -0.0253447 0.0163212 0.172193 0.124054 -0.168497 -0.0157659 0.00566491 0.0376229 -0.0906656 0.0600092 -0.124722 -0.0893372 -0.00947932 0.0164876 -0.0626551 -0.142326 0.0386503 0.0576486 0.0243806 0.0258364 -0.00969058 0.0943903 0.0221627 -0.0419552 -0.0599488 -0.024826 0.152578 0.154626 -0.0227713 -0.0589194 0.00600018 -0.0967587 -0.00652999 -0.018328 0.0716318 0.0794802 0.135529 0.140856 0.16628 -0.00130691 -0.102434 0.0383703 -0.332343 0.0485456 0.00571506 -0.102757 
0 140 0.0919342 0.0398984 -0.0855559 0.166818 -0.212621 -0.263626 0.148844 -0.1441 0.0525242 0.00734692 -0.062997 -0.0133231 0.0213354 -0.036707 0.16594 0.0595491 -0.044911 0.106908 -0.0163049 0.136619 -0.0405721 0.016286 -0.100917 0.129547 0.019668 0.132257 -0.0140409 -0.0991918 0.080812 0.130036 0.0205294 -0.018356 -0.117813 0.0118721 -0.0387979 0.163138 -0.00635804 0.0626956 0.166298 -0.120955 0.0147816 0.135499 -0.163527 -0.0218327 0.0481212 0.088054 0.134743 0.0412897 -0.0522511 0.15896 0.0337898 -0.0576986 
0 141 -0.106767 -0.0813468 0.0258682 0.09785 0.0472304 -0.0977162 0.050027 0.000186805 -0.0582013 -0.043679 0.0152598 -0.074512 -0.107303 0.0265197 -0.0249856 0.0346517 -0.0182485 -0.0456736 -0.00656382 -0.0422657 0.0778129 -0.0288244 0.0577127 0.013956 -0.0113368 0.0783561 0.0621646 0.0396184 0.00686074 0.130796 0.0557711 -0.0882016 -0.0637073 -0.0492475 -0.043268 -0.145914 -0.0592014 -0.0717586 0.210726 0.0302447 0.0937681 0.110072 0.159344 0.098835 0.031384 -0.0249225 0.0618034 -0.0831119 0.0197498 0.223813 -0.0877433 0.204827 
0 142 0.00506984 -0.139426 0.0969698 0.023889 -0.0537194 0.0706643 -0.119329 0.00646865 -0.0242134 -0.0751222 0.0404823 0.103032 0.180239 -0.275021 -0.242034 0.105141 -0.0495549 0.00330083 0.100337 -0.209765 -0.0602382 0.077538 0.040814 0.104619 -0.0236647 0.117224 0.0867093 -0.120537 0.0645966 -0.0254444 0.100437 -0.00916214 0.0299857 -0.0191555 0.1031 -0.140165 -0.277252 -0.0399879 0.0101794 0.237218 -0.34393 0.0171024 0.077338 0.0479348 -0.00396462 -0.211307 -0.00709687 -0.203806 -0.0142875 -0.024521 0.087362 -0.0208297 
0 143 -0.014417 -0.0197548 0.137235 0.208256 0.157104 0.135488 0.0459138 -0.0851884 -0.159235 0.0869684 0.101287 -0.0468968 0.255121 -0.0968255 0.010973 0.156387 -0.062055 -0.156746 0.207128 0.0944423 -0.215729 0.0631953 -0.0223384 0.17605 0.0595118 -0.0472758 0.127926 -0.0423628 -0.25836 0.17095 -0.19025 -0.195628 -0.0447451 0.297187 0.0368455 0.275744 0.0900747 0.105972 0.154402 0.145614 -0.0219239 -0.178068 0.0911093 0.0322258 0.00101511 0.287774 -0.114585 0.193781 -0.0832781 -0.0776621 0.0992242 0.142468 
0 144 0.141589 0.0522464 -0.0399 -0.089711 -0.0179177 -0.059861 -0.0288267 -0.0505921 -0.0441735 -0.00486237 -0.027731 0.00810257 0.100371 0.00880513 0.126066 -0.0169917 -0.116836 0.0302033 -0.124977 -0.00274736 -0.0289624 0.00405392 -0.0491335 -0.0423178 -0.0893057 -0.0580273 -0.00783087 -0.0238313 0.100944 -0.0201719 -0.101867 0.00832975 0.118373 -0.0612722 -0.215115 -0.183721 -0.0267669 0.0661301 0.114334 -0.0642919 -0.0245552 -0.00533238 0.0537073 -0.049076 0.1197 -0.209457 0.0148821 0.0797558 0.08016 -0.0391132 -0.0297122 -0.0851738 
0 145 0.0880508 -0.0742153 0.111036 -0.0608711 0.0215236 -0.0274899 -0.144084 0.051044 0.155858 0.145335 -0.0909598 -0.0482869 -0.0394522 -0.0283986 -0.229135 0.0701293 0.25558 -0.0902846 0.0525648 0.0820578 0.237167 0.0138676 -0.087223 0.0313672 0.0820532 0.0582686 -0.020684 0.00562672 0.076554 -0.143658 -0.160285 0.0853717 -0.0287605 -0.0144759 0.0157215 0.27389 0.0973795 -0.0210443 -0.0187123 0.174821 0.0748209 0.0440358 0.101905 -0.0920573 -0.107095 -0.0230211 -0.0975917 -0.150609 -0.037219 -0.0527365 -0.034213 -0.103816 
0 146 0.0634525 -0.184499 0.0933269 -0.0453019 -0.034165 -0.0770088 -0.054523 0.0307615 -0.0894606 0.0869885 -0.0760993 -0.0430425 0.00179219 -0.166259 -0.0471736 0.199859 -0.0600802 0.107348 -0.116147 0.0925748 -0.0157375 -0.0702361 0.0473884 0.00424706 -0.215061 0.103993 0.112017 -0.0400488 0.0216215 0.0489651 0.0529096 -0.00631866 -0.0814924 0.051392 -0.161461 0.0556636 -0.0279775 0.0758685 0.0385157 -0.0525444 -0.0759596 0.0726121 0.103915 0.00384812 -0.0443523 -0.0494685 -0.126003 0.0136933 -0.0517964 -0.0463669 0.0379445 -0.0494965 
0 147 -0.101167 -0.150835 0.149661 -0.139627 0.357018 0.0373359 0.310904 -0.126519 0.0919484 -4.78271e-06 -0.0327321 -0.349781 0.459768 0.0662274 0.279448 0.151448 0.433027 -0.000536872 0.139868 0.138501 0.240858 0.0155489 -0.374229 0.378208 -0.161883 -0.0891173 0.221635 0.0229567 -0.0680911 -0.0743688 -0.0503645 -0.000812436 -0.00847893 0.0241066 0.190002 0.0410366 0.0682863 0.106197 -0.0770492 0.0591336 0.249546 0.0933532 -0.000462068 0.203569 0.109918 0.299527 0.38671 -0.0412355 -0.0657677 0.00191881 0.0825278 0.0266763 
0 148 -0.0275788 0.0410854 0.0835779 -0.111923 -0.0492173 0.0900826 0.238169 0.0755769 -0.0191031 0.0923416 -0.103118 -0.206914 -0.0533753 -0.117339 -0.0249213 0.028137 0.0896313 -0.152032 0.0629733 -0.0270399 0.0590958 -0.222747 -0.153827 -0.0850848 -0.0910825 0.00798802 0.0455231 0.0157857 0.064867 -0.0760793 -0.0545388 0.078227 -0.0602916 -0.00941686 -0.0272987 0.0653536 -0.0274821 -0.011128 0.0941519 0.0845879 -0.191806 -0.158228 0.0500752 -0.151804 -0.0309012 -0.0924013 -0.127316 -0.00912774 0.106218 -0.123164 -0.191512 0.126089 
0 149 -0.0655474 -0.057927 -0.223004 0.220151 0.0193718 0.127467 -0.158941 -0.17434 -0.220399 0.140087 0.002148 -0.31135 0.00403147 -0.204154 0.133315 0.153533 0.0726699 -0.114485 -0.0941234 -0.0434173 -0.123631 -0.223231 -0.121392 0.172338 0.0964184 0.0415941 0.219864 -0.0196554 -0.126437 -0.174953 -0.161897 -0.0646131 -0.0629849 -0.0446452 0.0244359 -0.261363 0.0617833 -0.132004 0.152356 -0.0844598 -0.0868727 -0.0734104 -0.017859 -0.0133212 0.175101 -0.173832 -0.0684582 0.0401436 -0.0377867 0.0642239 0.214377 0.125042 
0 150 -0.00478856 0.0134836 0.0387507 -0.0592935 0.0190242 0.102467 0.0152994 0.139482 0.0308094 -0.0495793 -0.0643841 -0.0150546 0.202611 0.203396 0.117517 -0.218552 -0.0345103 -0.0711418 -0.119302 0.0792447 0.141568 0.0435834 0.0557136 0.0132753 -0.0189242 0.0442718 -0.0382997 0.0522415 -0.158863 -0.0245502 0.177086 0.0175619 0.0698936 -0.0197318 0.055406 -0.169043 0.0588838 -0.0772849 -0.0400402 0.00690807 0.0580617 0.216585 0.0926977 0.097064 -0.0131557 0.066865 0.141602 0.0906075 -0.00966067 -0.0315394 -0.104898 -0.0647416 
0 151 0.043353 -0.149138 0.0235618 0.0851454 -0.143899 -0.170683 -0.165628 -0.0344349 -0.178644 0.023085 -0.346862 -0.0706309 0.114265 0.14671 -0.123203 -0.0799724 0.10245 0.0472222 -0.0418798 0.0470298 0.015842 -0.173126 -0.0607297 -0.0457417 -0.0103049 -0.0205707 0.0682226 -0.0400207 -0.0920334 -0.0738796 0.00717427 -0.0127863 0.148002 0.0372905 0.093416 0.10497 -0.0972732 0.00451065 -0.0195095 0.0171562 -0.140348 -0.115586 0.0213921 -0.0550962 0.0865791 0.0187914 -0.0251831 -0.197248 0.0202603 0.0645537 0.0790992 0.0183497 
0 152 -0.132596 -0.0326725 0.0347059 0.124589 0.13843 0.0324121 -0.00309082 0.0716482 0.0147425 0.134554 0.139911 -0.00655154 -0.160579 0.00401929 -0.0509521 -0.041715 -0.200736 -0.198063 -0.0238944 -0.149409 0.063006 0.115667 0.0110651 0.141206 -0.0805325 0.217341 -0.102906 -0.0067716 0.232678 0.0550614 -0.113566 0.231265 0.0372006 -0.116448 0.100127 0.246376 -0.00656042 -0.0632341 -0.0268503 0.213102 -0.183702 0.0971449 0.154364 0.212451 0.0690956 -0.0935538 -0.0954151 0.0366347 0.0985804 -0.204808 0.137746 0.0296988 
0 153 0.214696 -0.0460444 -0.203834 -0.0283421 -0.101006 0.11317 0.0832035 0.058901 0.0905662 0.130803 -0.038428 -0.135514 -0.0730149 -0.00789623 0.0313414 0.097621 0.0543898 0.0666122 0.123142 0.0134427 0.212991 -0.0793824 0.0930552 -0.0369113 -0.114608 0.155757 0.00455002 -0.0246922 0.135007 0.00507813 0.0868129 0.079593 -0.0834899 0.000477342 -0.0332761 -0.0629093 0.00834208 0.184507 -0.0513239 0.0406592 -0.0375596 -0.197326 0.0367822 -0.0200755 0.0594272 -0.115631 0.0724327 -0.019627 -0.0533277 0.0339926 -0.0188343 -0.0598818 
0 154 -0.00849785 0.158507 0.134683 -0.0192535 -0.000659321 0.134775 -0.10934 -0.0549031 0.0648624 -0.0817015 0.0105998 0.17974 -0.162456 0.0796502 0.015815 0.0203008 0.0358011 -0.171352 -0.108873 0.082011 -0.00544241 0.175248 -0.0738823 0.154235 -0.038932 0.0494822 -0.128465 -0.0974449 0.00795728 -0.117544 0.0184606 0.0413114 0.11556 -0.0457805 -0.124786 0.107968 0.129355 0.0117769 -0.0109521 0.136368 0.143344 -0.0410898 0.0353268 0.0839057 -0.0284521 -0.137983 -0.0590431 0.0399449 0.148652 -0.028743 -0.269855 0.0258001 
0 155 0.0811542 0.00239687 0.0066281 0.0542626 0.0602272 0.104837 0.0322637 0.0318986 0.0467989 0.0171006 0.116213 -0.0783614 -0.026355 0.0328053 -0.0164351 0.0387425 0.222328 -0.0425559 -0.0785599 -0.014307 0.0852488 -0.250738 0.0975912 0.0661997 -0.0754663 -0.0610895 0.0946577 -0.182845 0.0475841 -0.110409 -0.0358327 0.0463392 -0.0271424 0.0428657 0.0242034 0.200225 0.149158 -0.052002 -0.203065 0.0664561 -0.0939432 -0.126604 0.0511329 0.0602629 -0.0582233 0.197446 0.0342017 -0.0658915 -0.0973466 0.109572 0.0637943 0.144127 
0 156 -0.0881026 -0.322697 0.129534 -0.163353 -0.114254 0.0126211 -0.140157 0.0451236 0.121617 0.115538 -0.0648506 0.0835568 -0.136578 -0.120003 -0.157225 -0.0663027 -0.0987369 -0.150726 0.0878759 0.247164 -0.0592928 -0.111186 -0.113503 -0.160298 -0.209616 0.0677607 0.14585 0.0123244 -0.0317506 -0.192029 0.0195902 0.124161 0.142816 0.045897 0.1875 -0.119679 -0.11259 -0.0853354 -0.0952816 0.234179 -0.00643796 0.0175357 -0.0177765 0.0289759 0.0131033 0.096162 -0.146045 -0.119702 -0.120569 0.0524659 -0.0211144 0.0114914 
0 157 -0.0472134 -0.131829 -0.0219845 0.00324784 0.0110417 -0.111394 0.201073 -0.0330589 -0.188364 -0.138757 -0.162778 0.00867598 0.130429 0.0139509 -0.161209 -0.0301265 -0.0650399 -0.0200785 0.0418684 0.0404524 0.16743 0.162463 0.0551042 -0.0998642 0.00268158 -0.0887201 0.00109959 -0.3794 0.0331886 0.120533 0.0421807 0.0851731 -0.24258 0.0254493 0.0170271 0.202244 0.0632162 0.0848026 -0.0820569 -0.0477869 -0.060419 0.00768323 0.234051 0.0148573 0.175078 0.0994823 -0.0796297 -0.0668004 0.147816 0.0626523 -0.0642843 0.0792528 
0 158 0.097996 0.0998358 -0.219544 0.305484 0.0297727 -0.0396595 0.470007 -0.0435789 -0.0334457 0.105372 -0.162442 0.222701 0.0300633 -0.031976 -0.177021 0.250431 0.246929 0.112915 -0.0509411 0.101662 0.232794 -0.015972 0.309188 -0.038855 -0.0129707 0.0360262 0.0674635 -0.139596 0.18415 -0.0440517 0.0607522 0.487223 -0.267882 0.0262509 -0.173079 0.12912 0.263279 0.152448 0.173156 -0.0145353 0.122121 -0.0319997 -0.0080857 0.320884 0.0286859 0.0657396 -0.176864 0.030609 0.00706063 0.0224544 -0.0295103 0.147548 
0 159 0.183779 -0.0961171 0.20156 -0.0326031 -0.0277746 0.0239202 0.0619439 -0.127886 0.0765348 0.172354 0.123558 0.0907834 -0.144277 0.191396 0.0484803 0.0496277 0.389627 -0.130928 0.114013 -0.0980634 -0.0359432 -0.0814064 0.142523 -0.150413 0.0454745 -0.0178122 0.0313385 -0.107346 0.458395 -0.142286 0.0694307 0.263482 0.0100607 0.0037068 -0.0325386 0.0251698 -0.080198 0.215595 0.121156 0.110123 -0.313055 0.0344691 0.177474 0.398012 -0.0261486 0.10847 0.0306141 0.212893 0.0902863 -0.19095 0.230983 -0.201808 
0 160 -0.031179 -0.105456 0.146156 0.169925 -0.140826 -0.0149584 0.00753359 0.0965528 -0.0815629 0.0676219 -0.0158531 -0.173231 0.00395978 0.0391111 -0.0501844 -0.180083 -0.0591473 -0.17757 0.0540424 -0.118553 0.047288 -0.0531383 0.0106465 -0.0686988 0.0691845 -0.136987 0.144163 -0.0482384 0.059739 -0.022614 -0.0843922 0.0309319 0.0452727 0.153052 -0.0890785 0.0393733 0.0671008 -0.0667252 -0.0411984 0.00576689 -0.11166 0.0303079 -0.193038 -0.0984742 0.175795 -0.0601647 0.0390584 0.153957 0.0253677 0.063762 -0.101425 -0.014274 
0 161 0.00902403 0.0810734 -0.423623 0.270873 -0.178154 0.00137091 0.276622 -0.116108 -0.263211 -0.0552055 -0.544346 0.5474 -0.169338 -0.103465 -0.0201014 0.0115898 -0.443873 -0.04164 0.0102143 -0.288673 0.44514 -0.0519523 -0.0426878 -0.348383 0.169461 -0.0517294 0.0991043 0.0340608 -0.118658 -0.244677 -0.302011 0.499047 -0.0544003 -0.105951 -0.202141 0.0528482 0.0923996 -0.392662 -0.121583 0.673873 -0.315635 -0.208599 -0.136521 0.0290319 0.14103 -0.207244 -0.0496799 -0.0291411 -0.190767 0.0539225 -0.2209 0.0815549 
0 162 -0.14479 0.140512 -0.0489709 0.129695 -0.0468171 -0.00908651 0.102093 0.147242 0.0269634 -0.0881094 0.00610413 -0.00909947 -0.042084 0.187603 -0.0387486 0.139589 0.0906571 -0.181487 0.0533056 0.208865 -0.0962177 0.0133292 -0.115559 0.243123 -0.0259889 -0.079261 0.231319 0.0796536 0.0868946 -0.00805919 -0.0724525 0.200654 -0.0164413 -0.0311492 0.0603161 0.0729906 -0.013603 0.00450202 0.259972 -0.0108632 -0.055066 -0.068224 0.00175254 0.0464278 0.0387304 -0.177267 0.0109071 0.014578 -0.0409139 0.0930725 -0.0726534 -0.0366204 
0 163 -0.289655 -0.0508366 -0.306345 0.0913351 -0.0567654 -0.00642169 -0.243482 0.0945559 -0.0710476 0.0185796 -0.139415 -0.00165449 -0.100514 -0.116212 -0.0534032 -0.0190094 0.00288234 0.102442 -0.159834 0.00145809 0.0217636 -0.0578532 -0.161381 0.0962971 0.0402971 -0.0828446 -0.136102 -0.120632 -0.00659589 0.00451474 -0.172979 0.157555 -0.0148908 0.125081 -0.132797 -0.0126531 0.0536221 -0.0555178 -0.0839199 0.0854744 0.120689 -0.00713203 0.0719611 0.197571 -0.114716 -0.29003 0.117409 0.0198405 0.0119478 0.0471642 0.147425 -0.207831 
0 164 -0.0150567 0.00133306 -0.1673 0.149463 0.154584 0.0406708 -0.00952227 -0.139725 -0.0977353 -0.0122651 0.100802 0.0754652 -0.15863 0.0489223 0.00766643 -0.00437552 0.131879 -0.00738081 -0.141597 0.0281213 -0.0968995 0.0113218 -0.128653 -0.0637906 0.0079399 -0.0762637 -0.0753268 0.0043247 -0.148489 0.135162 -0.144668 -0.0831753 0.0919579 -0.151779 -0.00777178 -0.0165033 -0.026371 0.144816 -0.0793364 0.0935174 -0.0518387 -0.186854 0.0840853 0.078253 0.0836 -0.178696 -0.0398594 -0.172621 0.0860251 0.00346973 -0.0423739 0.0164428 
0 165 -0.17235 -0.300562 -0.0187775 0.0377389 -0.129791 0.0618421 -0.195006 -0.0294818 -0.0678264 -0.178517 -0.0289428 -0.058691 -0.221561 0.0548817 -0.0252615 -0.0267072 0.187639 0.182171 -0.00788766 -0.0582292 -0.0903846 -0.0464898 0.0487512 -0.0968979 0.0445256 0.0929391 -0.0324301 0.102231 0.032666 -0.0791508 -0.0946758 -0.0180949 -0.141843 -0.00335568 -0.149991 -0.0183933 0.0991285 0.0592475 0.101682 0.286483 0.0937092 -0.044907 0.0826006 0.0192988 -0.0709158 0.14248 -0.0562217 0.0355711 0.0243531 -0.0807824 -0.0381775 -0.0235646 
0 166 0.0552873 -0.0033509 -0.0205434 0.0127219 0.00943204 -0.0952385 0.148955 0.23938 0.079052 -0.139353 0.295752 -0.0671441 -0.0682607 -0.0290831 0.0881093 -0.0336587 -0.084537 0.13428 -0.0213819 -0.115912 -0.0602306 -0.119777 0.174884 0.0112774 -0.0176167 0.00057044 0.0673998 0.0578052 -0.111522 -0.036034 0.184997 0.260344 -0.0263999 0.116605 0.188864 0.0148719 0.223668 -0.231385 -0.045505 -0.191895 0.0246322 0.0494338 0.243479 -0.0291051 -0.0926466 -0.127365 -0.021002 0.003229 0.016198 0.072396 0.0650629 -0.0493588 
0 167 -0.0728332 -0.220248 0.135025 -0.026291 0.0647963 0.0925118 0.249608 -0.197623 0.128713 0.0179832 -0.109185 -0.0565551 -0.098612 0.0772641 0.00395429 -0.0245369 -0.0111819 -0.0716634 0.0514952 0.142896 0.0101823 -0.0628894 -0.0778433 0.0522926 0.135864 -0.0513815 0.0199717 0.020093 -0.12008 -0.140132 -0.0660232 -0.0658308 0.0773174 -0.0473644 0.101039 -0.0567314 0.200629 -0.0128495 0.0509954 0.139474 0.0486656 0.0050522 0.0257471 0.0487261 -0.0954796 0.115193 0.121332 -0.0793474 -0.127485 0.145498 0.0549075 -0.0430823 
0 168 0.113208 0.146093 -0.0029121 0.0775054 0.0615793 0.0162503 0.303519 0.0741645 -0.0417647 0.0893205 -0.124778 0.0939514 0.120558 -0.11774 -0.144417 -0.025424 0.183211 0.0850097 0.128111 0.0444008 0.00321011 0.0425415 0.0075581 -0.154698 0.057876 0.0591241 0.103301 0.0408786 -0.0590962 -0.243425 -0.00589616 0.0277567 0.0739649 0.25095 0.139307 0.181522 0.0611373 -0.0518118 -0.140803 -0.180951 0.0155108 -0.0651395 0.139805 -0.116925 0.11703 -0.0328545 0.050703 0.0744072 -0.0859845 0.00593231 -0.025214 -0.0262017 
0 169 0.0718412 -0.000433257 -0.0672371 0.0696538 -0.0146676 -0.106438 0.157172 0.117865 0.0510979 0.0363073 -0.0217675 0.00389356 0.196708 0.0664671 -0.0607568 0.0404913 0.13044 0.114375 -0.0151966 0.397645 -0.0960088 -0.0495222 0.0892061 -0.0272817 0.0399908 0.0815507 0.0490247 -0.307244 0.0850356 -0.0018935 -0.0528888 0.311767 0.0019857 -0.109209 0.12272 0.27668 0.00145032 0.044284 0.259878 0.114817 -0.141948 0.190509 -0.0838428 0.233514 -0.188804 0.0694647 0.271428 -0.191484 0.0738291 0.0746568 0.251388 -0.184977 
0 170 0.042661 0.0358176 -0.13596 0.0157613 -0.0606137 -0.0633332 -0.0649336 0.0257494 0.126338 -0.00304163 -0.053906 -0.117396 -0.053705 0.00110683 0.185745 0.173171 0.138645 -0.081857 0.0908744 0.0683038 -0.101872 -0.0315303 0.124874 -0.236454 0.0489344 0.0684266 0.073286 0.0325326 0.0198474 0.0467046 0.144773 0.0204142 0.0366328 0.120152 -0.106376 0.0924311 0.222192 -0.0831314 0.0470289 -0.00417614 0.140852 0.0195326 -0.100066 -0.142547 -0.0193935 0.0557758 -0.0985092 0.107112 0.269983 0.0834583 -0.0166064 0.00674712 
0 171 0.0964151 -0.00873568 0.113572 0.112061 -0.0448374 -0.251331 0.0659538 0.0444957 0.129827 0.00842357 -0.0262825 0.122172 0.132181 0.140345 0.044765 -0.099943 -0.19829 -0.244575 0.148288 0.0321849 -0.0884162 0.0731612 -0.00564906 -0.0418884 -0.113051 0.0677805 -0.0605967 -0.0657876 0.179584 -0.135267 -0.0156877 -0.00565744 -0.0559869 0.0973401 0.0574981 0.152082 -0.0886298 -0.156439 0.0333201 0.0182249 -0.0301253 -0.13928 0.0215958 -0.25265 0.0480065 0.0391916 0.0188497 0.00388012 -0.141883 -0.0116968 0.110662 -0.0302524 
0 172 0.0919995 0.0239937 -0.0361017 0.0329049 0.0451662 0.014509 0.145828 -0.16491 0.0568022 0.347458 0.0225832 -0.0679437 0.153849 0.0897278 0.163239 -0.163111 -0.0304269 -0.0142949 -0.182736 0.185253 0.0965842 0.0682554 0.0334196 -0.286538 -0.0741268 0.0811679 0.07928 -0.0479942 -0.0567702 -0.00792361 -0.014077 -0.0272112 0.122048 -0.0335932 -0.0835901 -0.11006 -0.0740825 0.0987383 0.0155674 0.136442 0.193113 0.158972 0.0494691 -0.0191507 0.138245 0.014546 0.0146611 -0.0883548 -0.00989729 -0.050934 0.0921813 -0.00594354 
0 173 0.14017 0.0261142 -0.151189 0.0281435 0.00756535 0.13097 -0.0370284 -0.155207 0.168813 -0.0192067 0.0486842 -0.0225072 -0.0344451 -0.107589 -0.116741 -0.0170888 -0.0369901 0.0778585 -0.143361 -0.0365642 -0.082609 -0.121378 0.0546619 -0.117917 -0.014273 0.109079 -0.032537 0.0715609 0.168698 0.0834174 0.0472601 -0.0330202 -0.108756 -0.0663773 0.194904 0.00677409 -0.0329739 -0.00163299 -0.150248 -0.00634242 -0.0306976 -0.260646 0.0164778 0.121504 -0.0833767 0.0273597 0.0181904 -0.22727 0.214831 -0.0239141 -0.122311 -0.0738842 
0 174 -0.0877974 0.0340776 -0.209269 0.0653811 0.046015 0.0369752 0.0617006 0.0677466 -0.0405076 0.0558697 0.0946525 0.133547 0.0457225 0.0326532 0.0301125 -0.207264 -0.0277118 -0.235792 0.114282 0.207664 -0.057633 -0.106111 0.10425 -0.138073 0.122955 0.0666573 0.223039 -0.0554887 -0.161177 -0.113628 0.153979 -0.01682 0.0187202 0.013153 0.0965755 0.0211039 -0.04082 -0.052743 -0.128388 -0.204336 -0.1628 -0.199807 0.0778589 0.0408862 0.146902 -0.207684 -0.0628078 0.233099 -0.0416809 -0.0674562 -0.0329531 -0.0182835 
0 175 0.201177 0.193812 0.0670792 0.00810546 -0.0123184 -0.0604603 -0.0953636 0.207164 -0.231051 -0.121891 0.123151 0.137786 -0.0366472 -0.017871 0.134573 0.0400515 -0.140445 -0.00838566 -0.190672 -0.141512 0.043581 0.0509502 0.2008 -0.0735687 0.0206146 0.0498955 -0.0618319 0.108625 -0.119153 -0.131636 -0.082741 0.0910604 0.0103983 -0.133003 -0.148394 -0.0823549 0.136266 0.124817 0.000491311 -0.0492269 0.0159061 -0.00309283 0.0243259 0.01371 0.0578165 0.0125143 0.0292339 0.0996502 -0.0852418 -0.103337 -0.183413 -0.00644856 
0 176 0.0962714 -0.119108 -0.0976498 -0.112687 -0.0464507 -0.100584 0.0123082 0.0981072 -0.0460501 -0.0934521 0.0530717 -0.0079091 0.114193 0.00500237 -0.0582865 -0.0941944 -0.100171 -0.0754091 0.101085 0.065839 -0.0553166 -0.0279453 -0.0039845 -0.11864 -0.0520501 0.00680372 -0.083645 -0.00860341 0.000829978 -0.033071 -0.180975 0.144336 0.215914 0.117098 0.00189509 -0.0081628 -0.0642119 0.173965 -0.122056 0.200443 -0.0814546 0.0187224 0.0473699 0.0864144 -0.046544 0.0605961 -0.0740482 -0.138025 -0.0443168 0.0694882 -0.1394 -0.0611411 
0 177 -0.0126703 -0.197845 -0.032409 0.00830033 -0.132397 0.0671587 0.0748729 -0.271828 -0.0113374 -0.302275 0.0146599 -0.136105 -0.0292248 -0.0592597 0.19584 -0.00903829 0.0435186 -0.152775 0.0686785 -0.161213 0.0521024 -0.292504 -0.109404 0.0175539 0.192339 -0.00539728 -0.0162126 -0.00448873 0.0638883 -0.0715429 -0.079609 0.0189934 0.0300057 0.0502238 -0.20801 -0.0759762 -0.046567 0.0790653 0.203244 -0.155414 -0.0269387 -0.0990632 0.0767768 -0.150594 0.0269464 0.0137697 -0.0673991 0.0865201 -0.0109874 -0.0776103 -0.0210078 -0.19347 
0 178 0.0439455 -0.0698819 0.00378735 -0.0811607 -0.224376 0.0845846 -0.0202004 0.0174966 -0.137816 -0.0240063 0.0459547 -0.0014986 -0.0860306 0.0780439 -0.0708684 -0.247626 0.00385896 0.252373 -0.010279 -0.00780032 -0.109058 -0.0348889 -0.00256244 -0.042109 -0.165616 0.00604616 0.242311 0.150343 0.0475221 -0.109761 0.167676 -0.0259703 0.0238387 -0.134713 -0.115344 -0.0246096 0.0923779 0.0425621 -0.00215135 -0.126642 0.00184573 -0.032582 0.00364033 -0.0789514 0.0755465 -0.10725 -0.0442812 -0.131232 0.0622612 0.0448271 0.0338957 0.0703182 
0 179 0.0221994 0.00566365 0.0204906 0.0556812 0.218687 -0.0788833 -0.151068 0.0746545 0.0541721 0.0818088 0.10898 0.0550987 0.1402 0.032881 -0.0279421 0.0183513 0.171826 -0.0434782 0.000447079 0.0741715 -0.0849955 -0.0625438 -0.117736 -0.193597 0.0701698 0.27769 -0.15316 -0.0396951 0.174919 0.065549 -0.00661501 -0.0931888 0.0139639 -0.0223135 -0.13511 0.0894844 0.0530664 -0.0824449 0.147996 -0.00852572 0.0208575 0.0778205 0.0498895 0.240138 -0.0336992 0.202373 0.168793 0.11541 -0.136264 -0.25749 -0.0251407 -0.144734 
0 180 0.0869758 0.056403 -0.0968518 -0.134572 0.1683 0.157967 0.0869919 -0.0546897 0.088825 0.103147 -0.00241228 -0.235755 -0.177246 0.0342579 -0.00307054 0.00575938 -0.0265478 0.088338 0.0104474 -0.0573202 0.112394 0.0467401 0.0638781 -0.0449424 0.0481639 0.183109 -0.0541506 -0.0629258 -0.210844 -0.0711116 -0.238812 -0.190957 0.00867626 0.070405 0.0652578 -0.308859 0.0334367 -0.000881963 -0.0579977 -0.142144 0.172865 0.0344487 -0.168815 0.019451 -0.0482274 0.220547 -0.0244408 -0.0277042 -0.105899 0.05021 -0.105094 -0.0109835 
0 181 0.182447 0.0481421 -0.105748 0.116224 0.0089546 -0.137383 -0.0421213 -0.0438136 0.0293786 0.167445 0.129376 0.035511 0.0758528 0.0465044 -0.0157254 -0.0543696 0.100688 0.00346276 0.0719401 -0.048239 -0.288158 0.0892815 -0.150012 -0.0401965 -0.0254127 -0.0311334 -0.014273 -0.040348 0.0797092 -0.14805 0.0307861 0.0487346 0.0238192 0.0416985 0.0355314 -0.13334 0.116363 -0.0839679 0.0841918 0.141138 -0.0891939 0.0122834 -0.107051 0.0348809 0.024291 0.0224143 0.0551324 -0.0736006 -0.0073495 0.0421216 0.123952 0.0455325 
0 182 0.149955 -0.046234 0.10371 0.0473106 0.0749565 0.0515689 -0.104886 0.115238 -0.0678109 0.0101242 0.10901 -0.132377 -0.0764157 0.175829 -0.0989834 -0.233472 0.29716 -0.0574485 0.0913473 -0.0702648 -0.209403 0.0519092 -0.0155361 0.0524345 -0.00725665 -0.0418822 -0.19977 0.161165 -0.174601 0.0947767 0.288436 0.234127 0.0352936 0.0771854 -0.0151861 -0.10034 -0.153828 0.164592 0.0657356 0.00615535 0.0169685 0.0580792 -0.0850686 0.16673 -0.00820964 -0.0764333 -0.0346096 0.0541691 -0.0207114 0.00886746 -0.0378664 -0.0134588 
0 183 0.0697134 -0.134813 0.0861625 0.0291649 0.0188912 -0.00193726 -0.115091 -0.135539 0.0869891 -0.0519151 -0.00895659 -0.0145839 -0.119948 0.12903 0.132283 -0.132033 0.0406892 -0.114526 -0.018868 -0.159072 -0.169369 0.00996047 0.0734428 0.0326562 -0.0381894 -0.146597 -0.0210204 -0.0787337 0.0449282 0.0838914 -0.125563 -0.0346522 0.137201 -0.0160205 -0.0093605 -0.162957 -0.0639073 0.0349584 0.0159615 0.161454 -0.0583406 -0.128405 -0.119546 0.0325497 0.0913776 -0.0914919 -0.000427461 -0.0165443 -0.0433328 0.0554487 0.119435 -0.139894 
0 184 0.209658 0.103436 -0.047996 -0.0414773 0.0811941 -0.223346 0.027469 0.132054 0.307229 0.0768856 0.0162853 0.211517 -0.476695 -0.0699123 0.364768 -0.166005 0.12629 -0.0205989 0.0244347 0.212462 -0.125683 0.151765 0.23182 -0.0810169 -0.0222524 -0.0199683 -0.250928 0.177953 0.243176 -0.00662063 0.246567 0.164837 -0.108126 -0.110793 0.427738 -0.128365 -0.136767 0.148591 -0.224162 -0.172035 0.230521 0.452723 -0.118993 0.386854 -0.071812 -0.101146 0.16341 0.153882 0.0635689 0.0801515 0.0714456 0.0116651 
0 185 -0.112564 0.0632362 -0.0953979 0.0401377 0.19876 0.016354 0.130935 -0.35555 0.12675 -0.250306 0.0179373 -0.0956389 0.238755 -0.309813 -0.123673 -0.0694743 -0.214437 -0.145605 -0.0672673 -0.17736 0.0287227 0.0904965 -0.259641 0.277576 0.15461 0.0375699 -0.0549365 -0.151341 -0.0407582 -0.0340977 -0.135296 -0.0321588 0.147776 -0.0879758 -0.0909183 -0.0511389 -0.0686543 -0.00269725 -0.0590674 -0.0784304 -0.251661 -0.0608011 0.10565 0.0500461 -0.00522171 0.0286623 0.0800266 -0.267339 -0.039148 -0.023634 -0.0752959 0.0536622 
0 186 0.0361541 -0.151922 0.0710307 0.0438102 -0.0108223 0.16437 -0.0272081 -0.107817 0.0787539 -0.0940311 -0.084587 0.0717214 0.0309275 0.0346136 -0.0698976 0.0222424 -0.0737851 0.0200125 -0.020812 -0.0603368 -0.093041 -0.104036 0.0248086 -0.0891828 -0.13029 0.118345 -0.0223148 -0.0114209 0.00395425 -0.117646 -0.0509292 0.103831 -0.0797965 -0.0840893 -0.107448 0.00908537 -0.0399199 -0.113036 -0.173619 0.210126 0.0695468 0.0564053 0.148548 -0.0815489 0.213198 0.0267801 -0.131217 -0.117357 -0.00379434 0.163273 0.0268769 -0.102142 
0 187 -0.0451199 -0.126124 0.00726704 0.265053 -0.0528429 -0.0310188 -0.110187 -0.0298731 -0.0167648 0.0362033 -0.0460999 -0.0241886 0.15313 0.00111039 0.108629 -0.0656777 -0.0750321 -0.1572 -0.0599303 0.0665898 -0.110152 -0.0174756 0.0111089 -0.00130517 0.0196446 0.0448742 -0.0310309 -0.0148525 0.0250379 -0.0745502 0.079613 -0.0493562 -0.166118 0.052412 0.0896015 -0.0708737 0.12904 -0.0896704 0.0898077 0.229156 -0.0701631 -0.109358 -0.0939518 -0.171915 -0.022696 -0.0854682 -0.0241651 0.0639406 0.0914734 0.00165166 0.236732 0.0367208 
